0.0000 -5.8357 0.9895
0.0202 -5.8322 0.9895
0.0404 -5.8214 0.9893
0.0606 -5.8035 0.9889
0.0808 -5.7784 0.9884
0.1010 -5.7460 0.9876
0.1212 -5.7063 0.9864
0.1414 -5.6600 0.9847
0.1616 -5.6070 0.9820
0.1818 -5.5472 0.9771
0.2020 -5.4822 0.9648
0.2222 -5.4141 0.8961
0.2424 -5.3950 0.1905
0.2626 -5.4593 0.0238
0.2828 -5.5260 0.0081
0.3030 -5.5878 0.0040
0.3232 -5.6431 0.0024
0.3435 -5.6916 0.0016
0.3637 -5.7337 0.0012
0.3839 -5.7682 0.0009
0.4041 -5.7959 0.0007
0.4243 -5.8162 0.0006
0.4445 -5.8294 0.0005
0.4647 -5.8353 0.0004
0.4849 -5.8341 0.0004
0.5051 -5.8258 0.0003
0.5253 -5.8102 0.0003
0.5455 -5.7876 0.0003
0.5657 -5.7575 0.0003
0.5859 -5.7206 0.0002
0.6061 -5.6762 0.0002
0.6263 -5.6254 0.0002
0.6465 -5.5679 0.0002
0.6667 -5.5041 0.0002
0.6869 -5.4364 0.0002
0.7071 -5.3862 0.0001
0.0000 -4.5698 0.0006
0.0202 -4.6019 0.0007
0.0404 -4.6555 0.0007
0.0606 -4.7093 0.0008
0.0808 -4.7599 0.0010
0.1010 -4.8061 0.0013
0.1212 -4.8506 0.0021
0.1414 -4.9161 0.0035
0.1616 -5.0108 0.0045
0.1818 -5.1077 0.0075
0.2020 -5.2006 0.0172
0.2222 -5.2835 0.0822
0.2424 -5.3048 0.7820
0.2626 -5.2298 0.9394
0.2828 -5.1394 0.9376
0.3030 -5.0430 0.9027
0.3232 -4.9462 0.7779
0.3435 -4.8678 0.2731
0.3637 -4.8207 0.0480
0.3839 -4.7758 0.0168
0.4041 -4.7266 0.0085
0.4243 -4.6738 0.0053
0.4445 -4.6192 0.0039
0.4647 -4.5746 0.0037
0.4849 -4.5863 0.0024
0.5051 -4.6373 0.0014
0.5253 -4.6916 0.0009
0.5455 -4.7434 0.0007
0.5657 -4.7911 0.0005
0.5859 -4.8353 0.0004
0.6061 -4.8894 0.0003
0.6263 -4.9782 0.0003
0.6465 -5.0755 0.0003
0.6667 -5.1703 0.0003
0.6869 -5.2577 0.0003
0.7071 -5.3144 0.0004
0.0000 -4.5466 0.0003
0.0202 -4.5706 0.0002
0.0404 -4.6211 0.0001
0.0606 -4.6735 0.0001
0.0808 -4.7229 0.0001
0.1010 -4.7674 0.0002
0.1212 -4.8087 0.0003
0.1414 -4.8617 0.0002
0.1616 -4.8944 0.0007
0.1818 -4.9164 0.0011
0.2020 -4.9311 0.0016
0.2222 -4.9391 0.0023
0.2424 -4.9402 0.0035
0.2626 -4.9346 0.0056
0.2828 -4.9221 0.0102
0.3030 -4.9026 0.0236
0.3232 -4.8746 0.0872
0.3435 -4.8261 0.2918
0.3637 -4.7811 0.0183
0.3839 -4.7383 0.0050
0.4041 -4.6904 0.0026
0.4243 -4.6388 0.0018
0.4445 -4.5864 0.0017
0.4647 -4.5493 0.0020
0.4849 -4.5576 0.0031
0.5051 -4.6035 0.0025
0.5253 -4.6562 0.0018
0.5455 -4.7068 0.0013
0.5657 -4.7531 0.0010
0.5859 -4.7946 0.0007
0.6061 -4.8454 0.0003
0.6263 -4.8852 0.0004
0.6465 -4.9100 0.0003
0.6667 -4.9270 0.0003
0.6869 -4.9372 0.0003
0.7071 -4.9406 0.0003
0.0000 -4.4759 0.0004
0.0202 -4.5044 0.0007
0.0404 -4.5548 0.0010
0.0606 -4.6097 0.0012
0.0808 -4.6647 0.0012
0.1010 -4.7228 0.0011
0.1212 -4.7918 0.0005
0.1414 -4.8357 0.0001
0.1616 -4.8625 0.0001
0.1818 -4.8829 0.0002
0.2020 -4.8968 0.0002
0.2222 -4.9045 0.0003
0.2424 -4.9056 0.0004
0.2626 -4.9002 0.0006
0.2828 -4.8883 0.0011
0.3030 -4.8700 0.0025
0.3232 -4.8456 0.0091
0.3435 -4.8112 0.1556
0.3637 -4.7446 0.3249
0.3839 -4.6834 0.1252
0.4041 -4.6280 0.0514
0.4243 -4.5731 0.0251
0.4445 -4.5198 0.0121
0.4647 -4.4813 0.0012
0.4849 -4.4915 0.0010
0.5051 -4.5369 0.0001
0.5253 -4.5914 0.0001
0.5455 -4.6463 0.0001
0.5657 -4.7025 0.0002
0.5859 -4.7680 0.0005
0.6061 -4.8246 0.0009
0.6263 -4.8544 0.0007
0.6465 -4.8768 0.0007
0.6667 -4.8929 0.0006
0.6869 -4.9027 0.0006
0.7071 -4.9060 0.0006
0.0000 -4.4553 0.0001
0.0202 -4.4527 0.0012
0.0404 -4.5064 0.0013
0.0606 -4.5616 0.0015
0.0808 -4.6140 0.0020
0.1010 -4.6634 0.0027
0.1212 -4.7105 0.0034
0.1414 -4.7505 0.0037
0.1616 -4.7805 0.0041
0.1818 -4.8027 0.0048
0.2020 -4.8178 0.0058
0.2222 -4.8260 0.0072
0.2424 -4.8272 0.0094
0.2626 -4.8214 0.0130
0.2828 -4.8086 0.0191
0.3030 -4.7888 0.0306
0.3232 -4.7616 0.0543
0.3435 -4.7250 0.0971
0.3637 -4.6794 0.0982
0.3839 -4.6307 0.0474
0.4041 -4.5794 0.0222
0.4243 -4.5251 0.0117
0.4445 -4.4694 0.0064
0.4647 -4.4487 0.0109
0.4849 -4.4420 0.0026
0.5051 -4.4877 0.0025
0.5253 -4.5434 0.0016
0.5455 -4.5968 0.0010
0.5657 -4.6471 0.0007
0.5859 -4.6952 0.0004
0.6061 -4.7383 0.0002
0.6263 -4.7715 0.0001
0.6465 -4.7962 0.0001
0.6667 -4.8136 0.0001
0.6869 -4.8240 0.0001
0.7071 -4.8276 0.0001
0.0000 -4.4170 0.0015
0.0202 -4.4105 0.0004
0.0404 -4.3565 0.0003
0.0606 -4.3812 0.0004
0.0808 -4.4887 0.0005
0.1010 -4.5935 0.0003
0.1212 -4.6675 0.0003
0.1414 -4.7120 0.0008
0.1616 -4.7422 0.0014
0.1818 -4.7641 0.0021
0.2020 -4.7789 0.0028
0.2222 -4.7870 0.0039
0.2424 -4.7882 0.0056
0.2626 -4.7825 0.0083
0.2828 -4.7699 0.0135
0.3030 -4.7503 0.0246
0.3232 -4.7233 0.0547
0.3435 -4.6846 0.1624
0.3637 -4.6223 0.4833
0.3839 -4.5261 0.7596
0.4041 -4.4147 0.7937
0.4243 -4.3479 0.3175
0.4445 -4.3922 0.0405
0.4647 -4.4205 0.0075
0.4849 -4.4235 0.0037
0.5051 -4.3732 0.0007
0.5253 -4.3563 0.0008
0.5455 -4.4513 0.0012
0.5657 -4.5611 0.0010
0.5859 -4.6469 0.0007
0.6061 -4.6993 0.0006
0.6263 -4.7332 0.0005
0.6465 -4.7576 0.0005
0.6667 -4.7748 0.0004
0.6869 -4.7851 0.0004
0.7071 -4.7886 0.0004
0.0000 -4.3708 0.0003
0.0202 -4.3623 0.0002
0.0404 -4.3093 0.0002
0.0606 -4.2442 0.0004
0.0808 -4.1646 0.0004
0.1010 -4.0783 0.0004
0.1212 -3.9908 0.0003
0.1414 -3.9076 0.0002
0.1616 -3.8369 0.0002
0.1818 -3.7773 0.0002
0.2020 -3.7233 0.0003
0.2222 -3.6769 0.0003
0.2424 -3.6668 0.0006
0.2626 -3.7064 0.0011
0.2828 -3.7588 0.0017
0.3030 -3.8161 0.0026
0.3232 -3.8825 0.0039
0.3435 -3.9623 0.0048
0.3637 -4.0490 0.0063
0.3839 -4.1363 0.0106
0.4041 -4.2190 0.0273
0.4243 -4.2885 0.0562
0.4445 -4.3477 0.0184
0.4647 -4.3721 0.0132
0.4849 -4.3707 0.0045
0.5051 -4.3294 0.0018
0.5253 -4.2671 0.0020
0.5455 -4.1923 0.0017
0.5657 -4.1074 0.0014
0.5859 -4.0198 0.0012
0.6061 -3.9344 0.0009
0.6263 -3.8589 0.0004
0.6465 -3.7963 0.0002
0.6667 -3.7408 0.0002
0.6869 -3.6906 0.0002
0.7071 -3.6630 0.0002
0.0000 -4.3464 0.0013
0.0202 -4.3072 0.0013
0.0404 -4.2384 0.0015
0.0606 -4.2073 0.0004
0.0808 -4.1334 0.0002
0.1010 -4.0480 0.0002
0.1212 -3.9593 0.0003
0.1414 -3.8725 0.0004
0.1616 -3.7979 0.0005
0.1818 -3.7316 0.0005
0.2020 -3.6715 0.0006
0.2222 -3.6254 0.0010
0.2424 -3.6181 0.0012
0.2626 -3.6535 0.0009
0.2828 -3.7107 0.0007
0.3030 -3.7752 0.0004
0.3232 -3.8461 0.0002
0.3435 -3.9298 0.0014
0.3637 -4.0186 0.0041
0.3839 -4.1056 0.0113
0.4041 -4.1854 0.0489
0.4243 -4.2270 0.3031
0.4445 -4.2852 0.0041
0.4647 -4.3409 0.0013
0.4849 -4.3265 0.0027
0.5051 -4.2617 0.0028
0.5253 -4.2223 0.0026
0.5455 -4.1603 0.0010
0.5657 -4.0770 0.0007
0.5859 -3.9889 0.0006
0.6061 -3.9006 0.0007
0.6263 -3.8214 0.0014
0.6465 -3.7531 0.0017
0.6667 -3.6906 0.0015
0.6869 -3.6378 0.0014
0.7071 -3.6160 0.0012
0.0000 -4.3249 0.0007
0.0202 -4.2816 0.0006
0.0404 -4.2234 0.0003
0.0606 -4.1540 0.0008
0.0808 -4.0690 0.0008
0.1010 -3.9827 0.0006
0.1212 -3.9044 0.0003
0.1414 -3.8362 0.0002
0.1616 -3.7598 0.0002
0.1818 -3.6817 0.0004
0.2020 -3.6173 0.0007
0.2222 -3.5718 0.0008
0.2424 -3.5659 0.0005
0.2626 -3.5990 0.0002
0.2828 -3.6586 0.0002
0.3030 -3.7328 0.0004
0.3232 -3.8122 0.0008
0.3435 -3.8814 0.0010
0.3637 -3.9551 0.0010
0.3839 -4.0401 0.0008
0.4041 -4.1261 0.0018
0.4243 -4.2064 0.0404
0.4445 -4.2603 0.0273
0.4647 -4.3179 0.0023
0.4849 -4.3016 0.0035
0.5051 -4.2397 0.0037
0.5253 -4.1810 0.0029
0.5455 -4.0977 0.0017
0.5657 -4.0111 0.0008
0.5859 -3.9288 0.0002
0.6061 -3.8590 0.0007
0.6263 -3.7866 0.0006
0.6465 -3.7065 0.0003
0.6667 -3.6371 0.0003
0.6869 -3.5833 0.0005
0.7071 -3.5639 0.0006
0.0000 -4.0075 0.0003
0.0202 -4.0653 0.0003
0.0404 -4.1581 0.0001
0.0606 -4.1162 0.0003
0.0808 -4.0359 0.0002
0.1010 -3.9528 0.0001
0.1212 -3.8697 0.0004
0.1414 -3.7856 0.0005
0.1616 -3.7129 0.0004
0.1818 -3.6476 0.0004
0.2020 -3.5865 0.0003
0.2222 -3.5495 0.0001
0.2424 -3.5463 0.0001
0.2626 -3.5699 0.0006
0.2828 -3.6263 0.0002
0.3030 -3.6910 0.0001
0.3232 -3.7598 0.0001
0.3435 -3.8415 0.0004
0.3637 -3.9253 0.0020
0.3839 -4.0082 0.0057
0.4041 -4.0903 0.0181
0.4243 -4.1578 0.1930
0.4445 -4.1008 0.7610
0.4647 -4.0140 0.3520
0.4849 -4.0337 0.0515
0.5051 -4.1346 0.0102
0.5253 -4.1398 0.0026
0.5455 -4.0633 0.0018
0.5657 -3.9804 0.0017
0.5859 -3.8976 0.0019
0.6061 -3.8132 0.0012
0.6263 -3.7357 0.0003
0.6465 -3.6693 0.0003
0.6667 -3.6056 0.0005
0.6869 -3.5572 0.0006
0.7071 -3.5460 0.0003
0.0000 -3.9252 0.0006
0.0202 -3.9552 0.0006
0.0404 -3.9520 0.0006
0.0606 -3.9360 0.0006
0.0808 -3.9108 0.0007
0.1010 -3.8738 0.0008
0.1212 -3.8188 0.0006
0.1414 -3.7484 0.0004
0.1616 -3.6705 0.0004
0.1818 -3.5980 0.0001
0.2020 -3.5473 0.0003
0.2222 -3.5370 0.0004
0.2424 -3.5336 0.0004
0.2626 -3.5407 0.0006
0.2828 -3.5776 0.0013
0.3030 -3.6448 0.0005
0.3232 -3.7230 0.0002
0.3435 -3.7966 0.0007
0.3637 -3.8576 0.0012
0.3839 -3.9000 0.0022
0.4041 -3.9288 0.0047
0.4243 -3.9477 0.0125
0.4445 -3.9565 0.0524
0.4647 -3.9361 0.3171
0.4849 -3.9491 0.0111
0.5051 -3.9551 0.0090
0.5253 -3.9424 0.0056
0.5455 -3.9204 0.0038
0.5657 -3.8875 0.0027
0.5859 -3.8392 0.0014
0.6061 -3.7730 0.0004
0.6263 -3.6969 0.0004
0.6465 -3.6205 0.0004
0.6667 -3.5600 0.0003
0.6869 -3.5388 0.0004
0.7071 -3.5314 0.0008
0.0000 -3.8959 0.0009
0.0202 -3.8793 0.0002
0.0404 -3.8683 0.0001
0.0606 -3.8510 0.0001
0.0808 -3.8266 0.0001
0.1010 -3.7936 0.0002
0.1212 -3.7496 0.0001
0.1414 -3.6998 0.0005
0.1616 -3.6428 0.0005
0.1818 -3.5732 0.0006
0.2020 -3.5048 0.0003
0.2222 -3.4729 0.0002
0.2424 -3.4738 0.0003
0.2626 -3.4869 0.0003
0.2828 -3.5490 0.0002
0.3030 -3.6210 0.0008
0.3232 -3.6819 0.0012
0.3435 -3.7332 0.0012
0.3637 -3.7802 0.0006
0.3839 -3.8166 0.0005
0.4041 -3.8439 0.0008
0.4243 -3.8633 0.0014
0.4445 -3.8762 0.0034
0.4647 -3.8894 0.0267
0.4849 -3.8829 0.0634
0.5051 -3.8726 0.0056
0.5253 -3.8575 0.0017
0.5455 -3.8357 0.0008
0.5657 -3.8053 0.0006
0.5859 -3.7655 0.0005
0.6061 -3.7167 0.0006
0.6263 -3.6630 0.0004
0.6465 -3.5975 0.0002
0.6667 -3.5259 0.0003
0.6869 -3.4758 0.0007
0.7071 -3.4750 0.0010
0.0000 -3.8753 0.0003
0.0202 -3.8640 0.0009
0.0404 -3.8499 0.0011
0.0606 -3.8327 0.0011
0.0808 -3.8100 0.0011
0.1010 -3.7808 0.0012
0.1212 -3.7424 0.0012
0.1414 -3.6825 0.0008
0.1616 -3.6100 0.0003
0.1818 -3.5378 0.0005
0.2020 -3.4758 0.0007
0.2222 -3.4565 0.0003
0.2424 -3.4562 0.0003
0.2626 -3.4654 0.0004
0.2828 -3.5140 0.0011
0.3030 -3.5865 0.0021
0.3232 -3.6581 0.0017
0.3435 -3.7256 0.0007
0.3637 -3.7692 0.0012
0.3839 -3.8010 0.0016
0.4041 -3.8260 0.0022
0.4243 -3.8447 0.0030
0.4445 -3.8593 0.0035
0.4647 -3.8742 0.0071
0.4849 -3.8695 0.0810
0.5051 -3.8547 0.0260
0.5253 -3.8390 0.0098
0.5455 -3.8184 0.0051
0.5657 -3.7910 0.0032
0.5859 -3.7566 0.0023
0.6061 -3.7054 0.0014
0.6263 -3.6336 0.0004
0.6465 -3.5623 0.0019
0.6667 -3.4925 0.0019
0.6869 -3.4598 0.0013
0.7071 -3.4563 0.0011
0.0000 -3.7989 0.0000
0.0202 -3.8072 0.0002
0.0404 -3.8007 0.0002
0.0606 -3.7860 0.0002
0.0808 -3.7649 0.0002
0.1010 -3.7372 0.0003
0.1212 -3.7021 0.0004
0.1414 -3.6572 0.0006
0.1616 -3.5915 0.0011
0.1818 -3.5015 0.0008
0.2020 -3.4142 0.0003
0.2222 -3.4170 0.0004
0.2424 -3.4219 0.0003
0.2626 -3.4000 0.0001
0.2828 -3.4708 0.0003
0.3030 -3.5628 0.0002
0.3232 -3.6389 0.0013
0.3435 -3.6885 0.0028
0.3637 -3.7264 0.0040
0.3839 -3.7563 0.0060
0.4041 -3.7798 0.0100
0.4243 -3.7966 0.0197
0.4445 -3.8063 0.0535
0.4647 -3.8028 0.2373
0.4849 -3.8063 0.0801
0.5051 -3.8040 0.0267
0.5253 -3.7917 0.0131
0.5455 -3.7727 0.0080
0.5657 -3.7468 0.0057
0.5859 -3.7147 0.0046
0.6061 -3.6735 0.0045
0.6263 -3.6173 0.0048
0.6465 -3.5323 0.0027
0.6667 -3.4411 0.0021
0.6869 -3.4086 0.0015
0.7071 -3.4238 0.0005
0.0000 -3.7707 0.0003
0.0202 -3.6827 0.0002
0.0404 -3.5325 0.0002
0.0606 -3.3669 0.0002
0.0808 -3.1960 0.0002
0.1010 -3.0480 0.0002
0.1212 -3.1285 0.0002
0.1414 -3.2105 0.0003
0.1616 -3.2862 0.0003
0.1818 -3.3492 0.0003
0.2020 -3.3809 0.0005
0.2222 -3.3493 0.0001
0.2424 -3.3393 0.0001
0.2626 -3.3820 0.0006
0.2828 -3.3645 0.0002
0.3030 -3.3092 0.0002
0.3232 -3.2366 0.0002
0.3435 -3.1563 0.0002
0.3637 -3.0711 0.0002
0.3839 -3.1401 0.0008
0.4041 -3.3101 0.0012
0.4243 -3.4783 0.0020
0.4445 -3.6355 0.0040
0.4647 -3.7569 0.0089
0.4849 -3.7245 0.6787
0.5051 -3.5851 0.8933
0.5253 -3.4230 0.9348
0.5455 -3.2530 0.9351
0.5657 -3.0876 0.8288
0.5859 -3.0997 0.0008
0.6061 -3.1837 0.0004
0.6263 -3.2619 0.0003
0.6465 -3.3304 0.0004
0.6667 -3.3746 0.0006
0.6869 -3.3650 0.0005
0.7071 -3.3356 0.0004
0.0000 -2.6495 0.0001
0.0202 -2.6931 0.0002
0.0404 -2.7752 0.0002
0.0606 -2.8638 0.0002
0.0808 -2.9531 0.0002
0.1010 -3.0401 0.0002
0.1212 -3.0781 0.0003
0.1414 -3.1580 0.0003
0.1616 -3.2358 0.0003
0.1818 -3.3074 0.0003
0.2020 -3.3575 0.0002
0.2222 -3.3144 0.0001
0.2424 -3.2975 0.0007
0.2626 -3.3503 0.0005
0.2828 -3.3289 0.0005
0.3030 -3.2606 0.0004
0.3232 -3.1844 0.0004
0.3435 -3.1045 0.0004
0.3637 -3.0357 0.0004
0.3839 -2.9828 0.0002
0.4041 -2.8935 0.0002
0.4243 -2.8043 0.0003
0.4445 -2.7189 0.0003
0.4647 -2.6549 0.0006
0.4849 -2.6707 0.0004
0.5051 -2.7465 0.0003
0.5253 -2.8339 0.0003
0.5455 -2.9235 0.0003
0.5657 -3.0123 0.0018
0.5859 -3.0529 0.0591
0.6061 -3.1313 0.0073
0.6263 -3.2104 0.0029
0.6465 -3.2845 0.0017
0.6667 -3.3472 0.0010
0.6869 -3.3324 0.0009
0.7071 -3.2914 0.0010
0.0000 -2.6340 0.0005
0.0202 -2.6650 0.0003
0.0404 -2.7304 0.0003
0.0606 -2.8116 0.0003
0.0808 -2.8964 0.0003
0.1010 -2.9760 0.0003
0.1212 -3.0418 0.0002
0.1414 -3.1201 0.0002
0.1616 -3.1964 0.0002
0.1818 -3.2643 0.0002
0.2020 -3.3075 0.0005
0.2222 -3.3015 0.0009
0.2424 -3.2882 0.0004
0.2626 -3.3109 0.0006
0.2828 -3.2833 0.0007
0.3030 -3.2203 0.0007
0.3232 -3.1460 0.0008
0.3435 -3.0677 0.0009
0.3637 -2.9959 0.0011
0.3839 -2.9244 0.0007
0.4041 -2.8398 0.0007
0.4243 -2.7565 0.0008
0.4445 -2.6838 0.0008
0.4647 -2.6391 0.0005
0.4849 -2.6501 0.0010
0.5051 -2.7059 0.0015
0.5253 -2.7837 0.0025
0.5455 -2.8682 0.0059
0.5657 -2.9515 0.0299
0.5859 -3.0170 0.0543
0.6061 -3.0939 0.0096
0.6263 -3.1715 0.0034
0.6465 -3.2431 0.0015
0.6667 -3.2981 0.0009
0.6869 -3.3104 0.0006
0.7071 -3.2767 0.0013
0.0000 -2.5976 0.0002
0.0202 -2.6195 0.0001
0.0404 -2.6880 0.0001
0.0606 -2.7703 0.0001
0.0808 -2.8539 0.0001
0.1010 -2.9206 0.0001
0.1212 -2.9853 0.0002
0.1414 -3.0678 0.0002
0.1616 -3.1467 0.0002
0.1818 -3.2195 0.0002
0.2020 -3.2789 0.0001
0.2222 -3.2747 0.0005
0.2424 -3.2589 0.0008
0.2626 -3.2893 0.0003
0.2828 -3.2419 0.0002
0.3030 -3.1718 0.0002
0.3232 -3.0946 0.0002
0.3435 -3.0131 0.0002
0.3637 -2.9304 0.0002
0.3839 -2.8806 0.0005
0.4041 -2.7983 0.0006
0.4243 -2.7147 0.0005
0.4445 -2.6394 0.0006
0.4647 -2.5986 0.0007
0.4849 -2.6052 0.0006
0.5051 -2.6626 0.0024
0.5253 -2.7422 0.0050
0.5455 -2.8265 0.0130
0.5657 -2.9047 0.0823
0.5859 -2.9569 0.0064
0.6061 -3.0406 0.0008
0.6263 -3.1209 0.0004
0.6465 -3.1961 0.0003
0.6667 -3.2620 0.0003
0.6869 -3.2873 0.0007
0.7071 -3.2514 0.0009
0.0000 -2.5605 0.0001
0.0202 -2.5864 0.0001
0.0404 -2.6487 0.0002
0.0606 -2.7275 0.0002
0.0808 -2.8121 0.0002
0.1010 -2.8970 0.0003
0.1212 -2.8311 0.0002
0.1414 -2.8496 0.0002
0.1616 -2.9306 0.0002
0.1818 -3.0195 0.0002
0.2020 -3.1109 0.0002
0.2222 -3.1986 0.0004
0.2424 -3.2263 0.0004
0.2626 -3.1405 0.0002
0.2828 -3.0501 0.0002
0.3030 -2.9596 0.0002
0.3232 -2.8752 0.0002
0.3435 -2.8147 0.0003
0.3637 -2.9050 0.0003
0.3839 -2.8408 0.0003
0.4041 -2.7553 0.0003
0.4243 -2.6737 0.0003
0.4445 -2.6044 0.0004
0.4647 -2.5636 0.0008
0.4849 -2.5725 0.0018
0.5051 -2.6254 0.0011
0.5253 -2.7001 0.0009
0.5455 -2.7837 0.0012
0.5657 -2.8694 0.0060
0.5859 -2.8700 0.7358
0.6061 -2.8272 0.0711
0.6263 -2.9023 0.0087
0.6465 -2.9893 0.0033
0.6667 -3.0806 0.0019
0.6869 -3.1697 0.0014
0.7071 -3.2425 0.0002
0.0000 -2.5158 0.0001
0.0202 -2.5313 0.0001
0.0404 -2.5599 0.0001
0.0606 -2.5980 0.0001
0.0808 -2.6438 0.0001
0.1010 -2.6988 0.0001
0.1212 -2.7584 0.0001
0.1414 -2.8219 0.0004
0.1616 -2.9088 0.0004
0.1818 -3.0022 0.0004
0.2020 -3.0981 0.0004
0.2222 -3.1811 0.0003
0.2424 -3.1951 0.0002
0.2626 -3.1292 0.0004
0.2828 -3.0341 0.0004
0.3030 -2.9394 0.0004
0.3232 -2.8498 0.0003
0.3435 -2.7750 0.0003
0.3637 -2.7188 0.0004
0.3839 -2.6612 0.0004
0.4041 -2.6123 0.0005
0.4243 -2.5717 0.0007
0.4445 -2.5390 0.0009
0.4647 -2.5193 0.0008
0.4849 -2.5252 0.0006
0.5051 -2.5487 0.0008
0.5253 -2.5845 0.0011
0.5455 -2.6276 0.0020
0.5657 -2.6799 0.0051
0.5859 -2.7392 0.0278
0.6061 -2.7961 0.0341
0.6263 -2.8788 0.0049
0.6465 -2.9706 0.0021
0.6667 -3.0662 0.0013
0.6869 -3.1580 0.0010
0.7071 -3.1993 0.0021
0.0000 -2.5009 0.0002
0.0202 -2.4996 0.0003
0.0404 -2.5238 0.0004
0.0606 -2.5585 0.0004
0.0808 -2.6055 0.0004
0.1010 -2.6644 0.0004
0.1212 -2.7300 0.0004
0.1414 -2.7756 0.0003
0.1616 -2.8553 0.0004
0.1818 -2.9468 0.0004
0.2020 -3.0432 0.0004
0.2222 -3.1367 0.0004
0.2424 -3.1621 0.0002
0.2626 -3.0754 0.0003
0.2828 -2.9787 0.0003
0.3030 -2.8850 0.0003
0.3232 -2.7999 0.0003
0.3435 -2.7447 0.0004
0.3637 -2.6863 0.0004
0.3839 -2.6239 0.0003
0.4041 -2.5728 0.0003
0.4243 -2.5340 0.0003
0.4445 -2.5061 0.0002
0.4647 -2.4987 0.0003
0.4849 -2.4970 0.0005
0.5051 -2.5144 0.0003
0.5253 -2.5456 0.0007
0.5455 -2.5884 0.0014
0.5657 -2.6440 0.0035
0.5859 -2.7086 0.0205
0.6061 -2.7562 0.1165
0.6263 -2.8268 0.0164
0.6465 -2.9155 0.0054
0.6667 -3.0109 0.0026
0.6869 -3.1069 0.0015
0.7071 -3.1743 0.0007
0.0000 -2.4459 0.0001
0.0202 -2.4562 0.0003
0.0404 -2.4795 0.0002
0.0606 -2.5112 0.0002
0.0808 -2.5548 0.0002
0.1010 -2.6088 0.0003
0.1212 -2.6642 0.0002
0.1414 -2.7304 0.0002
0.1616 -2.8172 0.0002
0.1818 -2.9094 0.0002
0.2020 -3.0029 0.0002
0.2222 -3.0858 0.0003
0.2424 -3.1042 0.0006
0.2626 -3.0328 0.0007
0.2828 -2.9407 0.0007
0.3030 -2.8475 0.0008
0.3232 -2.7585 0.0008
0.3435 -2.6802 0.0008
0.3637 -2.6282 0.0005
0.3839 -2.5718 0.0006
0.4041 -2.5245 0.0006
0.4243 -2.4887 0.0008
0.4445 -2.4637 0.0010
0.4647 -2.4460 0.0004
0.4849 -2.4481 0.0009
0.5051 -2.4712 0.0022
0.5253 -2.4993 0.0032
0.5455 -2.5390 0.0054
0.5657 -2.5903 0.0123
0.5859 -2.6473 0.0530
0.6061 -2.7037 0.0112
0.6263 -2.7875 0.0010
0.6465 -2.8782 0.0007
0.6667 -2.9720 0.0008
0.6869 -3.0611 0.0010
0.7071 -3.1115 0.0010
0.0000 -2.4334 0.0002
0.0202 -2.4421 0.0001
0.0404 -2.4447 0.0002
0.0606 -2.4728 0.0002
0.0808 -2.5183 0.0002
0.1010 -2.5771 0.0002
0.1212 -2.6438 0.0002
0.1414 -2.5761 0.0002
0.1616 -2.3900 0.0002
0.1818 -2.1896 0.0002
0.2020 -1.9843 0.0002
0.2222 -1.7811 0.0002
0.2424 -1.7200 0.0001
0.2626 -1.9158 0.0002
0.2828 -2.1214 0.0002
0.3030 -2.3240 0.0003
0.3232 -2.5175 0.0003
0.3435 -2.6527 0.0003
0.3637 -2.5991 0.0007
0.3839 -2.5366 0.0007
0.4041 -2.4863 0.0007
0.4243 -2.4516 0.0007
0.4445 -2.4401 0.0005
0.4647 -2.4376 0.0008
0.4849 -2.4437 0.0007
0.5051 -2.4407 0.0012
0.5253 -2.4612 0.0017
0.5455 -2.5015 0.0025
0.5657 -2.5566 0.0045
0.5859 -2.6218 0.0196
0.6061 -2.6259 0.7270
0.6263 -2.4550 0.9383
0.6465 -2.2571 0.9552
0.6667 -2.0530 0.9472
0.6869 -1.8480 0.9052
0.7071 -1.6842 0.6210
0.0000 -2.4008 0.0001
0.0202 -2.3732 0.0001
0.0404 -2.3241 0.0001
0.0606 -2.2467 0.0001
0.0808 -2.1618 0.0001
0.1010 -2.0762 0.0001
0.1212 -1.9925 0.0002
0.1414 -1.9104 0.0002
0.1616 -1.8308 0.0002
0.1818 -1.7556 0.0002
0.2020 -1.6870 0.0002
0.2222 -1.6351 0.0002
0.2424 -1.6269 0.0001
0.2626 -1.6669 0.0001
0.2828 -1.7318 0.0001
0.3030 -1.8051 0.0001
0.3232 -1.8832 0.0001
0.3435 -1.9648 0.0002
0.3637 -2.0485 0.0002
0.3839 -2.1332 0.0002
0.4041 -2.2188 0.0002
0.4243 -2.3000 0.0004
0.4445 -2.3614 0.0007
0.4647 -2.3962 0.0013
0.4849 -2.3846 0.0009
0.5051 -2.3450 0.0004
0.5253 -2.2739 0.0004
0.5455 -2.1906 0.0004
0.5657 -2.1047 0.0005
0.5859 -2.0204 0.0007
0.6061 -1.9374 0.0011
0.6263 -1.8568 0.0018
0.6465 -1.7801 0.0032
0.6667 -1.7090 0.0069
0.6869 -1.6492 0.0239
0.7071 -1.6286 0.5732
0.0000 -2.3803 0.0005
0.0202 -2.3585 0.0001
0.0404 -2.2848 0.0001
0.0606 -2.1999 0.0001
0.0808 -2.1128 0.0001
0.1010 -2.0264 0.0001
0.1212 -1.9422 0.0001
0.1414 -1.8594 0.0002
0.1616 -1.7788 0.0002
0.1818 -1.7017 0.0001
0.2020 -1.6300 0.0001
0.2222 -1.5753 0.0001
0.2424 -1.5819 0.0005
0.2626 -1.6084 0.0004
0.2828 -1.6771 0.0004
0.3030 -1.7526 0.0004
0.3232 -1.8319 0.0004
0.3435 -1.9144 0.0004
0.3637 -1.9986 0.0004
0.3839 -2.0839 0.0005
0.4041 -2.1709 0.0005
0.4243 -2.2571 0.0006
0.4445 -2.3366 0.0008
0.4647 -2.3783 0.0009
0.4849 -2.3727 0.0008
0.5051 -2.3115 0.0002
0.5253 -2.2285 0.0003
0.5455 -2.1420 0.0005
0.5657 -2.0551 0.0007
0.5859 -1.9703 0.0010
0.6061 -1.8868 0.0013
0.6263 -1.8052 0.0017
0.6465 -1.7269 0.0025
0.6667 -1.6532 0.0047
0.6869 -1.5893 0.0245
0.7071 -1.6005 0.3510
0.0000 -2.3642 0.0001
0.0202 -2.3263 0.0002
0.0404 -2.2513 0.0002
0.0606 -2.1670 0.0002
0.0808 -2.0809 0.0002
0.1010 -1.9957 0.0002
0.1212 -1.9128 0.0001
0.1414 -1.8314 0.0001
0.1616 -1.7521 0.0001
0.1818 -1.6758 0.0002
0.2020 -1.6025 0.0002
0.2222 -1.5417 0.0002
0.2424 -1.5461 0.0002
0.2626 -1.5792 0.0003
0.2828 -1.6511 0.0002
0.3030 -1.7262 0.0003
0.3232 -1.8044 0.0003
0.3435 -1.8854 0.0003
0.3637 -1.9682 0.0004
0.3839 -2.0523 0.0004
0.4041 -2.1383 0.0005
0.4243 -2.2237 0.0005
0.4445 -2.3032 0.0006
0.4647 -2.3593 0.0006
0.4849 -2.3458 0.0010
0.5051 -2.2779 0.0016
0.5253 -2.1954 0.0017
0.5455 -2.1098 0.0018
0.5657 -2.0239 0.0019
0.5859 -1.9404 0.0021
0.6061 -1.8583 0.0024
0.6263 -1.7781 0.0031
0.6465 -1.7008 0.0044
0.6667 -1.6267 0.0081
0.6869 -1.5572 0.0303
0.7071 -1.5458 0.0352
0.0000 -2.3184 0.0002
0.0202 -2.2775 0.0002
0.0404 -2.1994 0.0003
0.0606 -2.1135 0.0003
0.0808 -2.0262 0.0002
0.1010 -1.9401 0.0002
0.1212 -1.8562 0.0002
0.1414 -1.7740 0.0002
0.1616 -1.6937 0.0002
0.1818 -1.6168 0.0002
0.2020 -1.5454 0.0002
0.2222 -1.5145 0.0002
0.2424 -1.5056 0.0002
0.2626 -1.5255 0.0002
0.2828 -1.5921 0.0002
0.3030 -1.6675 0.0002
0.3232 -1.7466 0.0003
0.3435 -1.8286 0.0003
0.3637 -1.9123 0.0003
0.3839 -1.9974 0.0003
0.4041 -2.0844 0.0003
0.4243 -2.1712 0.0003
0.4445 -2.2532 0.0003
0.4647 -2.3129 0.0004
0.4849 -2.2982 0.0007
0.5051 -2.2269 0.0009
0.5253 -2.1423 0.0011
0.5455 -2.0554 0.0015
0.5657 -1.9686 0.0019
0.5859 -1.8842 0.0027
0.6061 -1.8011 0.0040
0.6263 -1.7200 0.0062
0.6465 -1.6419 0.0107
0.6667 -1.5683 0.0237
0.6869 -1.5129 0.1369
0.7071 -1.4952 0.1088
0.0000 -0.7137 0.0001
0.0202 -0.7503 0.0001
0.0404 -0.8180 0.0001
0.0606 -0.8921 0.0001
0.0808 -0.9668 0.0001
0.1010 -1.0413 0.0001
0.1212 -1.1150 0.0001
0.1414 -1.1874 0.0001
0.1616 -1.2586 0.0001
0.1818 -1.3284 0.0001
0.2020 -1.3972 0.0002
0.2222 -1.4441 0.0001
0.2424 -1.4510 0.0001
0.2626 -1.4190 0.0002
0.2828 -1.3514 0.0003
0.3030 -1.2819 0.0003
0.3232 -1.2112 0.0003
0.3435 -1.1392 0.0004
0.3637 -1.0661 0.0004
0.3839 -0.9917 0.0004
0.4041 -0.9171 0.0005
0.4243 -0.8424 0.0006
0.4445 -0.7714 0.0008
0.4647 -0.7189 0.0011
0.4849 -0.7321 0.0008
0.5051 -0.7942 0.0011
0.5253 -0.8671 0.0014
0.5455 -0.9422 0.0018
0.5657 -1.0166 0.0024
0.5859 -1.0906 0.0033
0.6061 -1.1632 0.0048
0.6263 -1.2350 0.0078
0.6465 -1.3052 0.0149
0.6667 -1.3747 0.0399
0.6869 -1.4375 0.1568
0.7071 -1.4627 0.0729
0.0000 -0.7062 0.0001
0.0202 -0.7256 0.0001
0.0404 -0.7775 0.0001
0.0606 -0.8442 0.0001
0.0808 -0.9160 0.0001
0.1010 -0.9897 0.0001
0.1212 -1.0638 0.0001
0.1414 -1.1377 0.0001
0.1616 -1.2108 0.0001
0.1818 -1.2830 0.0001
0.2020 -1.3546 0.0001
0.2222 -1.4243 0.0002
0.2424 -1.4362 0.0001
0.2626 -1.3778 0.0002
0.2828 -1.3069 0.0002
0.3030 -1.2348 0.0003
0.3232 -1.1621 0.0003
0.3435 -1.0884 0.0004
0.3637 -1.0145 0.0004
0.3839 -0.9405 0.0005
0.4041 -0.8680 0.0005
0.4243 -0.7987 0.0006
0.4445 -0.7402 0.0006
0.4647 -0.7082 0.0006
0.4849 -0.7147 0.0011
0.5051 -0.7577 0.0009
0.5253 -0.8211 0.0007
0.5455 -0.8920 0.0006
0.5657 -0.9651 0.0005
0.5859 -1.0392 0.0006
0.6061 -1.1129 0.0008
0.6263 -1.1865 0.0014
0.6465 -1.2589 0.0031
0.6667 -1.3311 0.0096
0.6869 -1.4006 0.0817
0.7071 -1.4396 0.0007
0.0000 -0.6559 0.0001
0.0202 -0.6821 0.0001
0.0404 -0.7488 0.0001
0.0606 -0.8254 0.0001
0.0808 -0.9027 0.0001
0.1010 -0.9790 0.0002
0.1212 -1.0537 0.0002
0.1414 -1.1264 0.0002
0.1616 -1.1973 0.0002
0.1818 -1.2666 0.0003
0.2020 -1.3369 0.0003
0.2222 -1.4154 0.0001
0.2424 -1.4286 0.0001
0.2626 -1.3623 0.0001
0.2828 -1.2896 0.0001
0.3030 -1.2204 0.0001
0.3232 -1.1502 0.0001
0.3435 -1.0781 0.0001
0.3637 -1.0043 0.0002
0.3839 -0.9283 0.0002
0.4041 -0.8514 0.0003
0.4243 -0.7740 0.0004
0.4445 -0.7019 0.0006
0.4647 -0.6585 0.0009
0.4849 -0.6671 0.0010
0.5051 -0.7245 0.0007
0.5253 -0.7996 0.0006
0.5455 -0.8772 0.0007
0.5657 -0.9538 0.0007
0.5859 -1.0291 0.0008
0.6061 -1.1022 0.0011
0.6263 -1.1738 0.0018
0.6465 -1.2436 0.0044
0.6667 -1.3132 0.0210
0.6869 -1.3903 0.1085
0.7071 -1.4262 0.1046
0.0000 -0.6012 0.0002
0.0202 -0.6336 0.0002
0.0404 -0.6967 0.0002
0.0606 -0.7690 0.0002
0.0808 -0.8437 0.0002
0.1010 -0.9189 0.0002
0.1212 -0.9937 0.0002
0.1414 -1.0677 0.0002
0.1616 -1.1409 0.0002
0.1818 -1.2139 0.0002
0.2020 -1.2893 0.0002
0.2222 -1.3616 0.0002
0.2424 -1.3772 0.0003
0.2626 -1.3152 0.0003
0.2828 -1.2385 0.0003
0.3030 -1.1651 0.0003
0.3232 -1.0922 0.0003
0.3435 -1.0184 0.0003
0.3637 -0.9441 0.0003
0.3839 -0.8688 0.0003
0.4041 -0.7939 0.0003
0.4243 -0.7202 0.0003
0.4445 -0.6528 0.0004
0.4647 -0.6057 0.0006
0.4849 -0.6174 0.0013
0.5051 -0.6741 0.0020
0.5253 -0.7444 0.0027
0.5455 -0.8189 0.0034
0.5657 -0.8939 0.0045
0.5859 -0.9690 0.0061
0.6061 -1.0429 0.0090
0.6263 -1.1166 0.0148
0.6465 -1.1895 0.0294
0.6667 -1.2639 0.0801
0.6869 -1.3404 0.1892
0.7071 -1.3841 0.0576
0.0000 -0.5565 0.0002
0.0202 -0.5765 0.0002
0.0404 -0.5916 0.0002
0.0606 -0.6061 0.0002
0.0808 -0.6202 0.0001
0.1010 -0.6312 0.0001
0.1212 -0.6376 0.0001
0.1414 -0.6479 0.0001
0.1616 -0.7676 0.0002
0.1818 -0.9788 0.0002
0.2020 -1.1825 0.0002
0.2222 -1.3155 0.0002
0.2424 -1.3350 0.0003
0.2626 -1.2392 0.0002
0.2828 -1.0495 0.0002
0.3030 -0.8362 0.0002
0.3232 -0.6655 0.0003
0.3435 -0.6393 0.0003
0.3637 -0.6338 0.0002
0.3839 -0.6243 0.0002
0.4041 -0.6110 0.0002
0.4243 -0.5963 0.0002
0.4445 -0.5819 0.0003
0.4647 -0.5624 0.0004
0.4849 -0.5699 0.0002
0.5051 -0.5868 0.0003
0.5253 -0.6012 0.0004
0.5455 -0.6158 0.0009
0.5657 -0.6281 0.0022
0.5859 -0.6359 0.0080
0.6061 -0.6418 0.0563
0.6263 -0.7069 0.6714
0.6465 -0.9073 0.8910
0.6667 -1.1181 0.8115
0.6869 -1.2840 0.3055
0.7071 -1.3418 0.0400
0.0000 -0.5543 0.0001
0.0202 -0.5427 0.0001
0.0404 -0.5641 0.0002
0.0606 -0.5855 0.0002
0.0808 -0.6032 0.0002
0.1010 -0.6163 0.0002
0.1212 -0.6226 0.0002
0.1414 -0.6207 0.0002
0.1616 -0.6108 0.0002
0.1818 -0.5912 0.0002
0.2020 -0.5633 0.0002
0.2222 -0.5372 0.0002
0.2424 -0.5326 0.0002
0.2626 -0.5534 0.0002
0.2828 -0.5826 0.0002
0.3030 -0.6054 0.0002
0.3232 -0.6183 0.0001
0.3435 -0.6229 0.0002
0.3637 -0.6192 0.0003
0.3839 -0.6082 0.0003
0.4041 -0.5919 0.0003
0.4243 -0.5716 0.0003
0.4445 -0.5479 0.0004
0.4647 -0.5497 0.0004
0.4849 -0.5447 0.0005
0.5051 -0.5559 0.0005
0.5253 -0.5789 0.0008
0.5455 -0.5978 0.0017
0.5657 -0.6126 0.0033
0.5859 -0.6213 0.0067
0.6061 -0.6222 0.0136
0.6263 -0.6150 0.0201
0.6465 -0.5988 0.0119
0.6667 -0.5732 0.0066
0.6869 -0.5445 0.0040
0.7071 -0.5310 0.0026
0.0000 -0.5151 0.0001
0.0202 -0.5302 0.0002
0.0404 -0.5328 0.0002
0.0606 -0.5483 0.0003
0.0808 -0.5642 0.0003
0.1010 -0.5768 0.0003
0.1212 -0.5837 0.0002
0.1414 -0.5853 0.0002
0.1616 -0.5924 0.0002
0.1818 -0.5767 0.0002
0.2020 -0.5496 0.0002
0.2222 -0.5170 0.0002
0.2424 -0.5072 0.0001
0.2626 -0.5391 0.0002
0.2828 -0.5685 0.0002
0.3030 -0.5894 0.0003
0.3232 -0.5869 0.0002
0.3435 -0.5846 0.0002
0.3637 -0.5798 0.0003
0.3839 -0.5689 0.0003
0.4041 -0.5538 0.0004
0.4243 -0.5376 0.0005
0.4445 -0.5291 0.0005
0.4647 -0.5209 0.0003
0.4849 -0.5267 0.0007
0.5051 -0.5290 0.0019
0.5253 -0.5430 0.0019
0.5455 -0.5592 0.0023
0.5657 -0.5733 0.0033
0.5859 -0.5821 0.0056
0.6061 -0.5850 0.0167
0.6263 -0.5911 0.0968
0.6465 -0.5839 0.0121
0.6667 -0.5594 0.0021
0.6869 -0.5282 0.0009
0.7071 -0.5027 0.0012
0.0000 -0.5107 0.0003
0.0202 -0.5152 0.0002
0.0404 -0.5247 0.0001
0.0606 -0.5333 0.0001
0.0808 -0.5479 0.0001
0.1010 -0.5609 0.0001
0.1212 -0.5675 0.0001
0.1414 -0.5661 0.0002
0.1616 -0.5667 0.0002
0.1818 -0.5488 0.0002
0.2020 -0.5196 0.0002
0.2222 -0.4882 0.0003
0.2424 -0.4833 0.0004
0.2626 -0.5083 0.0003
0.2828 -0.5401 0.0003
0.3030 -0.5624 0.0002
0.3232 -0.5664 0.0003
0.3435 -0.5677 0.0003
0.3637 -0.5640 0.0003
0.3839 -0.5526 0.0003
0.4041 -0.5380 0.0003
0.4243 -0.5264 0.0003
0.4445 -0.5202 0.0004
0.4647 -0.5075 0.0004
0.4849 -0.5099 0.0005
0.5051 -0.5235 0.0002
0.5253 -0.5295 0.0008
0.5455 -0.5429 0.0010
0.5657 -0.5571 0.0013
0.5859 -0.5662 0.0026
0.6061 -0.5671 0.0117
0.6263 -0.5682 0.0532
0.6465 -0.5563 0.0062
0.6667 -0.5303 0.0030
0.6869 -0.4973 0.0027
0.7071 -0.4827 0.0028
0.0000 -0.4969 0.0002
0.0202 -0.4552 0.0002
0.0404 -0.3928 0.0001
0.0606 -0.3139 0.0001
0.0808 -0.2272 0.0001
0.1010 -0.1460 0.0001
0.1212 -0.2723 0.0002
0.1414 -0.4791 0.0002
0.1616 -0.5405 0.0001
0.1818 -0.5170 0.0001
0.2020 -0.4818 0.0001
0.2222 -0.4445 0.0001
0.2424 -0.4369 0.0001
0.2626 -0.4687 0.0002
0.2828 -0.5062 0.0002
0.3030 -0.5346 0.0002
0.3232 -0.5263 0.0002
0.3435 -0.3436 0.0001
0.3637 -0.1493 0.0002
0.3839 -0.1980 0.0005
0.4041 -0.2855 0.0005
0.4243 -0.3679 0.0005
0.4445 -0.4363 0.0005
0.4647 -0.4899 0.0003
0.4849 -0.4736 0.0003
0.5051 -0.4157 0.0006
0.5253 -0.3415 0.0011
0.5455 -0.2565 0.0030
0.5657 -0.1698 0.0231
0.5859 -0.2030 0.8092
0.6061 -0.4143 0.8412
0.6263 -0.5419 0.1069
0.6465 -0.5265 0.0074
0.6667 -0.4944 0.0025
0.6869 -0.4558 0.0014
0.7071 -0.4341 0.0016
0.0000 -0.4558 0.0003
0.0202 -0.4351 0.0002
0.0404 -0.3588 0.0002
0.0606 -0.2714 0.0002
0.0808 -0.1820 0.0002
0.1010 -0.0989 0.0001
0.1212 -0.0486 0.0002
0.1414 -0.1045 0.0002
0.1616 -0.1937 0.0002
0.1818 -0.2770 0.0002
0.2020 -0.3496 0.0002
0.2222 -0.3996 0.0002
0.2424 -0.4048 0.0002
0.2626 -0.3699 0.0003
0.2828 -0.3026 0.0003
0.3030 -0.2224 0.0003
0.3232 -0.1341 0.0003
0.3435 -0.0535 0.0003
0.3637 -0.0867 0.0004
0.3839 -0.1527 0.0003
0.4041 -0.2416 0.0002
0.4243 -0.3301 0.0002
0.4445 -0.4124 0.0002
0.4647 -0.4568 0.0006
0.4849 -0.4511 0.0006
0.5051 -0.3864 0.0003
0.5253 -0.3010 0.0005
0.5455 -0.2118 0.0012
0.5657 -0.1242 0.0096
0.5859 -0.0690 0.0507
0.6061 -0.0764 0.0006
0.6263 -0.1643 0.0012
0.6465 -0.2502 0.0011
0.6667 -0.3269 0.0011
0.6869 -0.3873 0.0010
0.7071 -0.4056 0.0005
0.0000 -0.4347 0.0001
0.0202 -0.3989 0.0001
0.0404 -0.3322 0.0001
0.0606 -0.2483 0.0001
0.0808 -0.1583 0.0001
0.1010 -0.0784 0.0002
0.1212 -0.0411 0.0001
0.1414 -0.0600 0.0002
0.1616 -0.1444 0.0002
0.1818 -0.2293 0.0002
0.2020 -0.3064 0.0002
0.2222 -0.3691 0.0002
0.2424 -0.3831 0.0002
0.2626 -0.3293 0.0002
0.2828 -0.2561 0.0002
0.3030 -0.1732 0.0001
0.3232 -0.0867 0.0001
0.3435 -0.0334 0.0003
0.3637 -0.0658 0.0003
0.3839 -0.1283 0.0002
0.4041 -0.2186 0.0001
0.4243 -0.3053 0.0002
0.4445 -0.3797 0.0002
0.4647 -0.4278 0.0005
0.4849 -0.4147 0.0004
0.5051 -0.3572 0.0007
0.5253 -0.2773 0.0017
0.5455 -0.1885 0.0050
0.5657 -0.0999 0.0409
0.5859 -0.0487 0.0081
0.6061 -0.0391 0.0140
0.6263 -0.1155 0.0064
0.6465 -0.2015 0.0040
0.6667 -0.2819 0.0026
0.6869 -0.3505 0.0017
0.7071 -0.3886 0.0011
0.0000 -0.4012 0.0001
0.0202 -0.3633 0.0002
0.0404 -0.2857 0.0002
0.0606 -0.1982 0.0002
0.0808 -0.1077 0.0002
0.1010 -0.0291 0.0001
0.1212 0.0168 0.0003
0.1414 -0.0438 0.0002
0.1616 -0.1349 0.0002
0.1818 -0.2157 0.0002
0.2020 -0.2825 0.0002
0.2222 -0.3304 0.0002
0.2424 -0.3417 0.0002
0.2626 -0.3006 0.0001
0.2828 -0.2397 0.0002
0.3030 -0.1632 0.0002
0.3232 -0.0746 0.0003
0.3435 0.0080 0.0003
0.3637 -0.0175 0.0002
0.3839 -0.0778 0.0008
0.4041 -0.1681 0.0009
0.4243 -0.2571 0.0010
0.4445 -0.3393 0.0010
0.4647 -0.3967 0.0006
0.4849 -0.3833 0.0005
0.5051 -0.3132 0.0008
0.5253 -0.2279 0.0014
0.5455 -0.1379 0.0035
0.5657 -0.0496 0.0339
0.5859 0.0040 0.0243
0.6061 -0.0143 0.0059
0.6263 -0.1054 0.0034
0.6465 -0.1901 0.0020
0.6667 -0.2621 0.0014
0.6869 -0.3166 0.0009
0.7071 -0.3465 0.0006
0.0000 0.7161 0.0001
0.0202 0.6244 0.0002
0.0404 0.4923 0.0002
0.0606 0.3580 0.0001
0.0808 0.1979 0.0002
0.1010 0.0188 0.0003
0.1212 0.0450 0.0001
0.1414 -0.0110 0.0002
0.1616 -0.0941 0.0002
0.1818 -0.1798 0.0002
0.2020 -0.2573 0.0002
0.2222 -0.3167 0.0002
0.2424 -0.3267 0.0002
0.2626 -0.2800 0.0002
0.2828 -0.2068 0.0002
0.3030 -0.1232 0.0002
0.3232 -0.0364 0.0002
0.3435 0.0265 0.0002
0.3637 0.0227 0.0008
0.3839 0.1320 0.0003
0.4041 0.3107 0.0004
0.4243 0.4479 0.0004
0.4445 0.5810 0.0006
0.4647 0.7003 0.0026
0.4849 0.6656 0.0089
0.5051 0.5367 0.0164
0.5253 0.4033 0.0519
0.5455 0.2583 0.3853
0.5657 0.0664 0.7299
0.5859 0.0415 0.0159
0.6061 0.0085 0.0069
0.6263 -0.0650 0.0048
0.6465 -0.1518 0.0034
0.6667 -0.2327 0.0027
0.6869 -0.3004 0.0030
0.7071 -0.3300 0.0033
0.0000 0.7789 0.0002
0.0202 0.6797 0.0002
0.0404 0.5459 0.0001
0.0606 0.4083 0.0002
0.0808 0.2576 0.0003
0.1010 0.1366 0.0002
0.1212 0.0630 0.0001
0.1414 0.1002 0.0001
0.1616 0.1833 0.0001
0.1818 0.2775 0.0001
0.2020 0.3711 0.0001
0.2222 0.4547 0.0001
0.2424 0.4742 0.0003
0.2626 0.4010 0.0003
0.2828 0.3089 0.0003
0.3030 0.2144 0.0004
0.3232 0.1247 0.0004
0.3435 0.0747 0.0002
0.3637 0.1022 0.0002
0.3839 0.2143 0.0002
0.4041 0.3567 0.0004
0.4243 0.5019 0.0002
0.4445 0.6351 0.0005
0.4647 0.7614 0.0027
0.4849 0.7232 0.0020
0.5051 0.5903 0.0017
0.5253 0.4572 0.0867
0.5455 0.3052 0.2398
0.5657 0.1741 0.0490
0.5859 0.0738 0.0246
0.6061 0.0838 0.0013
0.6263 0.1530 0.0014
0.6465 0.2459 0.0011
0.6667 0.3404 0.0009
0.6869 0.4293 0.0008
0.7071 0.4820 0.0007
0.0000 0.8084 0.0001
0.0202 0.6947 0.0002
0.0404 0.5547 0.0002
0.0606 0.4170 0.0002
0.0808 0.2935 0.0002
0.1010 0.1788 0.0002
0.1212 0.0936 0.0002
0.1414 0.1476 0.0001
0.1616 0.2373 0.0002
0.1818 0.3309 0.0002
0.2020 0.4240 0.0002
0.2222 0.5080 0.0002
0.2424 0.5277 0.0002
0.2626 0.4539 0.0002
0.2828 0.3621 0.0002
0.3030 0.2683 0.0002
0.3232 0.1775 0.0002
0.3435 0.0954 0.0002
0.3637 0.1437 0.0001
0.3839 0.2541 0.0002
0.4041 0.3749 0.0003
0.4243 0.5075 0.0010
0.4445 0.6484 0.0018
0.4647 0.7820 0.0045
0.4849 0.7400 0.0237
0.5051 0.6016 0.0521
0.5253 0.4607 0.0661
0.5455 0.3338 0.0038
0.5657 0.2158 0.0036
0.5859 0.1126 0.0066
0.6061 0.1181 0.0066
0.6263 0.2070 0.0015
0.6465 0.2995 0.0005
0.6667 0.3933 0.0004
0.6869 0.4823 0.0003
0.7071 0.5355 0.0003
0.0000 0.8384 0.0002
0.0202 0.7530 0.0002
0.0404 0.6131 0.0002
0.0606 0.4704 0.0003
0.0808 0.3278 0.0003
0.1010 0.2060 0.0003
0.1212 0.1299 0.0002
0.1414 0.1566 0.0002
0.1616 0.2475 0.0001
0.1818 0.3461 0.0001
0.2020 0.4436 0.0002
0.2222 0.5358 0.0002
0.2424 0.5616 0.0001
0.2626 0.4754 0.0001
0.2828 0.3787 0.0001
0.3030 0.2803 0.0001
0.3232 0.1840 0.0002
0.3435 0.1292 0.0004
0.3637 0.1719 0.0005
0.3839 0.2846 0.0004
0.4041 0.4216 0.0003
0.4243 0.5662 0.0004
0.4445 0.7067 0.0008
0.4647 0.8350 0.0035
0.4849 0.7979 0.0187
0.5051 0.6599 0.0353
0.5253 0.5187 0.0995
0.5455 0.3736 0.1315
0.5657 0.2439 0.0371
0.5859 0.1443 0.0048
0.6061 0.1370 0.0023
0.6263 0.2150 0.0014
0.6465 0.3132 0.0011
0.6667 0.4114 0.0008
0.6869 0.5063 0.0007
0.7071 0.5754 0.0004
0.0000 0.8657 0.0003
0.0202 0.9342 0.0003
0.0404 0.7531 0.0002
0.0606 0.5403 0.0002
0.0808 0.3800 0.0001
0.1010 0.2556 0.0002
0.1212 0.1614 0.0002
0.1414 0.2056 0.0003
0.1616 0.2997 0.0003
0.1818 0.3969 0.0003
0.2020 0.4921 0.0003
0.2222 0.5737 0.0004
0.2424 0.5854 0.0003
0.2626 0.5223 0.0006
0.2828 0.4289 0.0007
0.3030 0.3321 0.0007
0.3232 0.2361 0.0008
0.3435 0.1576 0.0007
0.3637 0.2191 0.0004
0.3839 0.3360 0.0004
0.4041 0.4803 0.0005
0.4243 0.6788 0.0005
0.4445 0.8997 0.0013
0.4647 0.8699 0.0017
0.4849 0.8998 0.0068
0.5051 0.8280 0.8210
0.5253 0.6072 0.6588
0.5455 0.4275 0.2014
0.5657 0.2946 0.0459
0.5859 0.1863 0.0158
0.6061 0.1776 0.0024
0.6263 0.2675 0.0014
0.6465 0.3645 0.0011
0.6667 0.4608 0.0010
0.6869 0.5504 0.0010
0.7071 0.5851 0.0013
0.0000 0.8714 0.0002
0.0202 0.9639 0.0002
0.0404 1.0665 0.0002
0.0606 1.1171 0.0002
0.0808 1.0958 0.0002
0.1010 1.0539 0.0002
0.1212 1.0005 0.0002
0.1414 0.9377 0.0002
0.1616 0.8671 0.0002
0.1818 0.7902 0.0002
0.2020 0.7097 0.0002
0.2222 0.6383 0.0002
0.2424 0.6270 0.0001
0.2626 0.6835 0.0001
0.2828 0.7636 0.0001
0.3030 0.8421 0.0001
0.3232 0.9150 0.0002
0.3435 0.9806 0.0002
0.3637 1.0373 0.0003
0.3839 1.0834 0.0006
0.4041 1.1139 0.0013
0.4243 1.0959 0.0032
0.4445 0.9880 0.0025
0.4647 0.8914 0.0020
0.4849 0.9312 0.0094
0.5051 1.0285 0.0116
0.5253 1.1126 0.0051
0.5455 1.1062 0.0027
0.5657 1.0694 0.0019
0.5859 1.0195 0.0015
0.6061 0.9598 0.0013
0.6263 0.8914 0.0012
0.6465 0.8164 0.0011
0.6667 0.7368 0.0011
0.6869 0.6588 0.0010
0.7071 0.6233 0.0001
0.0000 0.9084 0.0002
0.0202 0.9848 0.0002
0.0404 1.1137 0.0002
0.0606 1.1640 0.0002
0.0808 1.1374 0.0002
0.1010 1.0956 0.0002
0.1212 1.0427 0.0002
0.1414 0.9804 0.0002
0.1616 0.9103 0.0002
0.1818 0.8336 0.0002
0.2020 0.7521 0.0002
0.2222 0.6735 0.0002
0.2424 0.6537 0.0003
0.2626 0.7249 0.0002
0.2828 0.8069 0.0002
0.3030 0.8853 0.0002
0.3232 0.9579 0.0003
0.3435 1.0230 0.0003
0.3637 1.0791 0.0004
0.3839 1.1249 0.0005
0.4041 1.1572 0.0005
0.4243 1.1478 0.0007
0.4445 1.0264 0.0010
0.4647 0.9190 0.0137
0.4849 0.9547 0.0437
0.5051 1.0714 0.0046
0.5253 1.1661 0.0027
0.5455 1.1482 0.0013
0.5657 1.1110 0.0009
0.5859 1.0614 0.0008
0.6061 1.0024 0.0007
0.6263 0.9344 0.0006
0.6465 0.8597 0.0005
0.6667 0.7798 0.0005
0.6869 0.6983 0.0007
0.7071 0.6462 0.0015
0.0000 0.9346 0.0002
0.0202 1.0291 0.0002
0.0404 1.1524 0.0003
0.0606 1.1713 0.0003
0.0808 1.1504 0.0002
0.1010 1.1106 0.0002
0.1212 1.0590 0.0002
0.1414 0.9975 0.0002
0.1616 0.9275 0.0002
0.1818 0.8504 0.0002
0.2020 0.7676 0.0002
0.2222 0.6866 0.0002
0.2424 0.6668 0.0003
0.2626 0.7397 0.0003
0.2828 0.8233 0.0003
0.3030 0.9025 0.0003
0.3232 0.9750 0.0004
0.3435 1.0395 0.0004
0.3637 1.0946 0.0005
0.3839 1.1387 0.0006
0.4041 1.1677 0.0007
0.4243 1.1700 0.0007
0.4445 1.0635 0.0127
0.4647 0.9625 0.0036
0.4849 1.0047 0.0405
0.5051 1.1090 0.0148
0.5253 1.1693 0.0013
0.5455 1.1603 0.0012
0.5657 1.1254 0.0010
0.5859 1.0773 0.0009
0.6061 1.0192 0.0008
0.6263 0.9517 0.0007
0.6465 0.8768 0.0007
0.6667 0.7958 0.0007
0.6869 0.7122 0.0008
0.7071 0.6599 0.0013
0.0000 1.1784 0.0001
0.0202 1.0631 0.0002
0.0404 1.1769 0.0002
0.0606 1.2409 0.0002
0.0808 1.2202 0.0003
0.1010 1.1770 0.0004
0.1212 1.1225 0.0004
0.1414 1.0586 0.0004
0.1616 0.9867 0.0005
0.1818 0.9082 0.0005
0.2020 0.8247 0.0005
0.2222 0.7430 0.0006
0.2424 0.7213 0.0004
0.2626 0.7967 0.0004
0.2828 0.8808 0.0005
0.3030 0.9612 0.0006
0.3232 1.0355 0.0008
0.3435 1.1022 0.0010
0.3637 1.1600 0.0014
0.3839 1.2073 0.0022
0.4041 1.2392 0.0039
0.4243 1.2010 0.0063
0.4445 1.1045 0.0025
0.4647 1.1407 0.0185
0.4849 1.0805 0.7272
0.5051 1.1470 0.0049
0.5253 1.2279 0.0029
0.5455 1.2312 0.0031
0.5657 1.1929 0.0022
0.5859 1.1418 0.0017
0.6061 1.0811 0.0014
0.6263 1.0115 0.0012
0.6465 0.9350 0.0010
0.6667 0.8531 0.0008
0.6869 0.7691 0.0007
0.7071 0.7116 0.0002
0.0000 1.1932 0.0002
0.0202 1.1915 0.0001
0.0404 1.1993 0.0002
0.0606 1.3044 0.0003
0.0808 1.4400 0.0002
0.1010 1.5927 0.0002
0.1212 1.7405 0.0003
0.1414 1.8680 0.0004
0.1616 1.9758 0.0004
0.1818 2.0833 0.0005
0.2020 2.1969 0.0005
0.2222 2.3129 0.0005
0.2424 2.3471 0.0012
0.2626 2.2359 0.0013
0.2828 2.1205 0.0015
0.3030 2.0110 0.0017
0.3232 1.9050 0.0020
0.3435 1.7860 0.0015
0.3637 1.6433 0.0010
0.3839 1.4904 0.0008
0.4041 1.3445 0.0005
0.4243 1.2333 0.0045
0.4445 1.1896 0.0007
0.4647 1.1942 0.0238
0.4849 1.1931 0.0089
0.5051 1.1885 0.0011
0.5253 1.2730 0.0023
0.5455 1.3909 0.0006
0.5657 1.5417 0.0006
0.5859 1.6927 0.0005
0.6061 1.8285 0.0005
0.6263 1.9407 0.0005
0.6465 2.0468 0.0005
0.6667 2.1583 0.0005
0.6869 2.2749 0.0005
0.7071 2.3648 0.0005
0.0000 1.2366 0.0002
0.0202 1.2388 0.0001
0.0404 1.2409 0.0001
0.0606 1.3224 0.0002
0.0808 1.4688 0.0002
0.1010 1.6240 0.0001
0.1212 1.7743 0.0002
0.1414 1.8948 0.0003
0.1616 2.0023 0.0002
0.1818 2.1119 0.0002
0.2020 2.2275 0.0003
0.2222 2.3435 0.0003
0.2424 2.3757 0.0004
0.2626 2.2670 0.0004
0.2828 2.1498 0.0005
0.3030 2.0382 0.0005
0.3232 1.9309 0.0006
0.3435 1.8186 0.0011
0.3637 1.6755 0.0009
0.3839 1.5203 0.0011
0.4041 1.3690 0.0022
0.4243 1.2532 0.0007
0.4445 1.2378 0.0031
0.4647 1.2389 0.0502
0.4849 1.2394 0.0021
0.5051 1.2377 0.0007
0.5253 1.2797 0.0003
0.5455 1.4182 0.0004
0.5657 1.5723 0.0004
0.5859 1.7259 0.0006
0.6061 1.8580 0.0006
0.6263 1.9666 0.0008
0.6465 2.0747 0.0011
0.6667 2.1883 0.0014
0.6869 2.3061 0.0018
0.7071 2.3975 0.0003
0.0000 1.2583 0.0002
0.0202 1.2569 0.0003
0.0404 1.2765 0.0003
0.0606 1.3351 0.0002
0.0808 1.4878 0.0003
0.1010 1.6449 0.0004
0.1212 1.7895 0.0004
0.1414 1.9161 0.0002
0.1616 2.0265 0.0002
0.1818 2.1360 0.0002
0.2020 2.2507 0.0002
0.2222 2.3641 0.0003
0.2424 2.3936 0.0005
0.2626 2.2896 0.0006
0.2828 2.1736 0.0006
0.3030 2.0626 0.0008
0.3232 1.9539 0.0012
0.3435 1.8332 0.0030
0.3637 1.6956 0.0053
0.3839 1.5404 0.0057
0.4041 1.3839 0.0049
0.4243 1.2873 0.0023
0.4445 1.2593 0.0092
0.4647 1.2567 0.0753
0.4849 1.2561 0.0300
0.5051 1.2650 0.0026
0.5253 1.2992 0.0013
0.5455 1.4354 0.0007
0.5657 1.5931 0.0005
0.5859 1.7440 0.0005
0.6061 1.8759 0.0009
0.6263 1.9904 0.0009
0.6465 2.0990 0.0008
0.6667 2.2119 0.0009
0.6869 2.3280 0.0011
0.7071 2.3998 0.0032
0.0000 1.2797 0.0004
0.0202 1.3033 0.0003
0.0404 1.3015 0.0002
0.0606 1.3989 0.0002
0.0808 1.5483 0.0002
0.1010 1.6969 0.0002
0.1212 1.8269 0.0002
0.1414 1.9450 0.0002
0.1616 2.0467 0.0004
0.1818 2.1551 0.0004
0.2020 2.2706 0.0004
0.2222 2.3843 0.0007
0.2424 2.4140 0.0003
0.2626 2.3096 0.0003
0.2828 2.1930 0.0003
0.3030 2.0818 0.0003
0.3232 1.9794 0.0002
0.3435 1.8672 0.0006
0.3637 1.7427 0.0011
0.3839 1.5989 0.0023
0.4041 1.4475 0.0039
0.4243 1.3174 0.0085
0.4445 1.3026 0.0265
0.4647 1.2918 0.2457
0.4849 1.3012 0.0404
0.5051 1.3009 0.0121
0.5253 1.3539 0.0020
0.5455 1.4977 0.0010
0.5657 1.6488 0.0009
0.5859 1.7857 0.0007
0.6061 1.9069 0.0005
0.6263 2.0127 0.0006
0.6465 2.1180 0.0006
0.6667 2.2315 0.0006
0.6869 2.3480 0.0005
0.7071 2.4128 0.0018
0.0000 1.3641 0.0002
0.0202 1.4944 0.0002
0.0404 1.6152 0.0003
0.0606 1.6610 0.0003
0.0808 1.7119 0.0003
0.1010 1.7773 0.0003
0.1212 1.8649 0.0002
0.1414 1.9603 0.0004
0.1616 2.0874 0.0003
0.1818 2.2063 0.0003
0.2020 2.3184 0.0004
0.2222 2.4175 0.0004
0.2424 2.4262 0.0007
0.2626 2.3546 0.0005
0.2828 2.2440 0.0005
0.3030 2.1284 0.0003
0.3232 2.0011 0.0003
0.3435 1.8965 0.0004
0.3637 1.8036 0.0004
0.3839 1.7317 0.0018
0.4041 1.6768 0.0059
0.4243 1.6314 0.0364
0.4445 1.5512 0.5424
0.4647 1.3828 0.4734
0.4849 1.4336 0.0064
0.5051 1.5919 0.0016
0.5253 1.6461 0.0010
0.5455 1.6936 0.0008
0.5657 1.7534 0.0007
0.5859 1.8328 0.0006
0.6061 1.9263 0.0005
0.6263 2.0446 0.0006
0.6465 2.1679 0.0007
0.6667 2.2815 0.0007
0.6869 2.3890 0.0010
0.7071 2.4313 0.0003
0.0000 1.6000 0.0003
0.0202 1.6124 0.0003
0.0404 1.6619 0.0002
0.0606 1.7040 0.0002
0.0808 1.7468 0.0003
0.1010 1.8022 0.0003
0.1212 1.8728 0.0003
0.1414 1.9909 0.0002
0.1616 2.1150 0.0003
0.1818 2.2306 0.0003
0.2020 2.3408 0.0003
0.2222 2.4334 0.0006
0.2424 2.4393 0.0005
0.2626 2.3747 0.0006
0.2828 2.2682 0.0009
0.3030 2.1534 0.0010
0.3232 2.0361 0.0023
0.3435 1.9051 0.0013
0.3637 1.8238 0.0006
0.3839 1.7637 0.0018
0.4041 1.7172 0.0072
0.4243 1.6780 0.0627
0.4445 1.6239 0.1052
0.4647 1.6013 0.0157
0.4849 1.6053 0.0046
0.5051 1.6419 0.0016
0.5253 1.6914 0.0012
0.5455 1.7313 0.0010
0.5657 1.7822 0.0009
0.5859 1.8472 0.0008
0.6061 1.9463 0.0006
0.6263 2.0772 0.0005
0.6465 2.1921 0.0005
0.6667 2.3051 0.0006
0.6869 2.4060 0.0004
0.7071 2.4471 0.0014
0.0000 1.6439 0.0005
0.0202 1.6558 0.0005
0.0404 1.6813 0.0002
0.0606 1.7159 0.0001
0.0808 1.7621 0.0002
0.1010 1.8260 0.0002
0.1212 1.9172 0.0002
0.1414 2.0092 0.0002
0.1616 2.1271 0.0002
0.1818 2.2516 0.0002
0.2020 2.3650 0.0003
0.2222 2.4387 0.0003
0.2424 2.4656 0.0003
0.2626 2.3979 0.0015
0.2828 2.2908 0.0019
0.3030 2.1697 0.0026
0.3232 2.0438 0.0015
0.3435 1.9465 0.0009
0.3637 1.8540 0.0040
0.3839 1.7809 0.0061
0.4041 1.7300 0.0112
0.4243 1.6915 0.0152
0.4445 1.6637 0.0023
0.4647 1.6453 0.0003
0.4849 1.6494 0.0003
0.5051 1.6723 0.0009
0.5253 1.7031 0.0010
0.5455 1.7452 0.0008
0.5657 1.8019 0.0009
0.5859 1.8859 0.0012
0.6061 1.9770 0.0005
0.6263 2.0837 0.0005
0.6465 2.2112 0.0008
0.6667 2.3289 0.0012
0.6869 2.4241 0.0012
0.7071 2.4712 0.0018
0.0000 1.6632 0.0002
0.0202 1.6713 0.0003
0.0404 1.7062 0.0005
0.0606 1.7515 0.0001
0.0808 1.7932 0.0001
0.1010 1.8491 0.0002
0.1212 1.9306 0.0002
0.1414 2.0575 0.0004
0.1616 2.1736 0.0006
0.1818 2.2833 0.0006
0.2020 2.3920 0.0007
0.2222 2.4770 0.0005
0.2424 2.4790 0.0006
0.2626 2.4264 0.0005
0.2828 2.3197 0.0005
0.3030 2.2103 0.0006
0.3232 2.0979 0.0013
0.3435 1.9716 0.0039
0.3637 1.8715 0.0027
0.3839 1.8101 0.0031
0.4041 1.7642 0.0061
0.4243 1.7241 0.0020
0.4445 1.6790 0.0165
0.4647 1.6640 0.0101
0.4849 1.6666 0.0065
0.5051 1.6907 0.0029
0.5253 1.7395 0.0008
0.5455 1.7779 0.0007
0.5657 1.8287 0.0007
0.5859 1.8972 0.0008
0.6061 2.0149 0.0021
0.6263 2.1363 0.0019
0.6465 2.2468 0.0017
0.6667 2.3561 0.0021
0.6869 2.4569 0.0034
0.7071 2.4873 0.0008
0.0000 1.6700 0.0001
0.0202 1.6818 0.0002
0.0404 1.7178 0.0002
0.0606 1.7669 0.0006
0.0808 1.8363 0.0006
0.1010 1.9099 0.0006
0.1212 1.9921 0.0006
0.1414 2.0889 0.0004
0.1616 2.1995 0.0003
0.1818 2.3208 0.0003
0.2020 2.4327 0.0003
0.2222 2.5084 0.0004
0.2424 2.5132 0.0002
0.2626 2.4637 0.0003
0.2828 2.3603 0.0003
0.3030 2.2393 0.0004
0.3232 2.1245 0.0009
0.3435 2.0225 0.0014
0.3637 1.9361 0.0020
0.3839 1.8603 0.0025
0.4041 1.7895 0.0034
0.4243 1.7300 0.0369
0.4445 1.6917 0.0599
0.4647 1.6713 0.0085
0.4849 1.6751 0.0007
0.5051 1.7045 0.0003
0.5253 1.7458 0.0012
0.5455 1.8126 0.0010
0.5657 1.8847 0.0009
0.5859 1.9634 0.0009
0.6061 2.0548 0.0010
0.6263 2.1612 0.0013
0.6465 2.2800 0.0013
0.6667 2.3980 0.0013
0.6869 2.4901 0.0015
0.7071 2.5001 0.0005
0.0000 1.7080 0.0002
0.0202 1.7192 0.0002
0.0404 1.7523 0.0001
0.0606 1.7978 0.0002
0.0808 1.8552 0.0001
0.1010 1.9256 0.0001
0.1212 2.0075 0.0001
0.1414 2.1060 0.0001
0.1616 2.2327 0.0002
0.1818 2.3480 0.0003
0.2020 2.4501 0.0003
0.2222 2.5218 0.0008
0.2424 2.5324 0.0011
0.2626 2.4766 0.0005
0.2828 2.3844 0.0006
0.3030 2.2721 0.0007
0.3232 2.1459 0.0022
0.3435 2.0378 0.0012
0.3637 1.9516 0.0015
0.3839 1.8773 0.0031
0.4041 1.8155 0.0085
0.4243 1.7665 0.0299
0.4445 1.7277 0.0503
0.4647 1.7093 0.0059
0.4849 1.7131 0.0013
0.5051 1.7390 0.0016
0.5253 1.7816 0.0008
0.5455 1.8345 0.0005
0.5657 1.9008 0.0005
0.5859 1.9789 0.0005
0.6061 2.0703 0.0006
0.6263 2.1894 0.0016
0.6465 2.3103 0.0011
0.6667 2.4189 0.0011
0.6869 2.4987 0.0015
0.7071 2.5265 0.0020
0.0000 1.7218 0.0002
0.0202 1.7308 0.0002
0.0404 1.7729 0.0002
0.0606 1.8207 0.0002
0.0808 1.8783 0.0002
0.1010 1.9487 0.0002
0.1212 2.0321 0.0002
0.1414 2.1287 0.0002
0.1616 2.2389 0.0003
0.1818 2.3707 0.0003
0.2020 2.4826 0.0005
0.2222 2.5434 0.0002
0.2424 2.5440 0.0011
0.2626 2.5110 0.0013
0.2828 2.4115 0.0021
0.3030 2.2828 0.0024
0.3232 2.1635 0.0004
0.3435 2.0629 0.0003
0.3637 1.9751 0.0004
0.3839 1.9003 0.0007
0.4041 1.8385 0.0016
0.4243 1.7886 0.0095
0.4445 1.7395 0.0198
0.4647 1.7227 0.0042
0.4849 1.7255 0.0028
0.5051 1.7537 0.0009
0.5253 1.8041 0.0007
0.5455 1.8577 0.0007
0.5657 1.9238 0.0007
0.5859 2.0030 0.0007
0.6061 2.0951 0.0007
0.6263 2.1998 0.0005
0.6465 2.3275 0.0024
0.6667 2.4491 0.0041
0.6869 2.5326 0.0050
0.7071 2.5447 0.0008
0.0000 1.7378 0.0002
0.0202 1.7468 0.0002
0.0404 1.7786 0.0002
0.0606 1.8427 0.0001
0.0808 1.9106 0.0001
0.1010 1.9855 0.0001
0.1212 2.0708 0.0001
0.1414 2.1712 0.0002
0.1616 2.2881 0.0002
0.1818 2.4102 0.0003
0.2020 2.5174 0.0004
0.2222 2.5642 0.0007
0.2424 2.5545 0.0004
0.2626 2.5458 0.0007
0.2828 2.4485 0.0005
0.3030 2.3291 0.0006
0.3232 2.2086 0.0005
0.3435 2.1024 0.0005
0.3637 2.0126 0.0006
0.3839 1.9346 0.0010
0.4041 1.8647 0.0047
0.4243 1.7999 0.0568
0.4445 1.7543 0.0028
0.4647 1.7388 0.0022
0.4849 1.7417 0.0015
0.5051 1.7643 0.0015
0.5253 1.8213 0.0019
0.5455 1.8873 0.0011
0.5657 1.9595 0.0007
0.5859 2.0410 0.0006
0.6061 2.1358 0.0006
0.6263 2.2477 0.0006
0.6465 2.3701 0.0007
0.6667 2.4846 0.0008
0.6869 2.5659 0.0014
0.7071 2.5533 0.0051
0.0000 1.7537 0.0001
0.0202 1.7665 0.0001
0.0404 1.8054 0.0002
0.0606 1.8783 0.0001
0.0808 1.9788 0.0001
0.1010 2.1070 0.0001
0.1212 2.2583 0.0002
0.1414 2.4276 0.0002
0.1616 2.6100 0.0002
0.1818 2.7863 0.0003
0.2020 2.6771 0.0006
0.2222 2.5785 0.0005
0.2424 2.5691 0.0003
0.2626 2.6369 0.0005
0.2828 2.7628 0.0006
0.3030 2.6724 0.0020
0.3232 2.4873 0.0027
0.3435 2.3130 0.0038
0.3637 2.1551 0.0060
0.3839 2.0187 0.0111
0.4041 1.9086 0.0246
0.4243 1.8268 0.0647
0.4445 1.7761 0.0185
0.4647 1.7551 0.0050
0.4849 1.7595 0.0026
0.5051 1.7887 0.0012
0.5253 1.8512 0.0004
0.5455 1.9421 0.0006
0.5657 2.0614 0.0007
0.5859 2.2056 0.0008
0.6061 2.3695 0.0009
0.6263 2.5481 0.0012
0.6465 2.7343 0.0018
0.6667 2.7200 0.0011
0.6869 2.6032 0.0009
0.7071 2.5714 0.0058
0.0000 1.7688 0.0002
0.0202 1.7816 0.0002
0.0404 1.8276 0.0001
0.0606 1.9139 0.0002
0.0808 2.0225 0.0001
0.1010 2.1496 0.0001
0.1212 2.2993 0.0001
0.1414 2.4676 0.0001
0.1616 2.6490 0.0001
0.1818 2.8091 0.0004
0.2020 2.7077 0.0007
0.2222 2.5940 0.0012
0.2424 2.5796 0.0006
0.2626 2.6632 0.0012
0.2828 2.7983 0.0019
0.3030 2.7108 0.0028
0.3232 2.5270 0.0033
0.3435 2.3536 0.0037
0.3637 2.1971 0.0040
0.3839 2.0625 0.0039
0.4041 1.9482 0.0172
0.4243 1.8528 0.0610
0.4445 1.7925 0.0290
0.4647 1.7701 0.0122
0.4849 1.7743 0.0038
0.5051 1.8076 0.0008
0.5253 1.8820 0.0005
0.5455 1.9844 0.0007
0.5657 2.1046 0.0008
0.5859 2.2470 0.0008
0.6061 2.4098 0.0008
0.6263 2.5876 0.0011
0.6465 2.7711 0.0017
0.6667 2.7536 0.0029
0.6869 2.6223 0.0016
0.7071 2.5838 0.0008
0.0000 1.7839 0.0002
0.0202 1.8018 0.0002
0.0404 1.8577 0.0002
0.0606 1.9345 0.0001
0.0808 2.0375 0.0003
0.1010 2.1692 0.0003
0.1212 2.3253 0.0004
0.1414 2.4986 0.0005
0.1616 2.6836 0.0005
0.1818 2.8298 0.0002
0.2020 2.7191 0.0006
0.2222 2.6154 0.0004
0.2424 2.6069 0.0007
0.2626 2.6762 0.0005
0.2828 2.8058 0.0004
0.3030 2.7460 0.0036
0.3232 2.5594 0.0046
0.3435 2.3815 0.0058
0.3637 2.2190 0.0083
0.3839 2.0780 0.0141
0.4041 1.9670 0.0072
0.4243 1.8795 0.0051
0.4445 1.8171 0.0681
0.4647 1.7858 0.0095
0.4849 1.7916 0.0034
0.5051 1.8377 0.0021
0.5253 1.9051 0.0005
0.5455 2.0009 0.0005
0.5657 2.1220 0.0005
0.5859 2.2711 0.0006
0.6061 2.4393 0.0008
0.6263 2.6211 0.0013
0.6465 2.8050 0.0021
0.6667 2.7631 0.0022
0.6869 2.6377 0.0017
0.7071 2.6098 0.0010
0.0000 1.8022 0.0002
0.0202 1.8160 0.0002
0.0404 1.8690 0.0002
0.0606 1.9454 0.0002
0.0808 2.0490 0.0002
0.1010 2.1882 0.0002
0.1212 2.3481 0.0002
0.1414 2.5233 0.0002
0.1616 2.7078 0.0003
0.1818 2.8469 0.0010
0.2020 2.7613 0.0003
0.2222 2.6435 0.0003
0.2424 2.6314 0.0013
0.2626 2.7174 0.0008
0.2828 2.8452 0.0010
0.3030 2.7687 0.0028
0.3232 2.5842 0.0032
0.3435 2.4051 0.0039
0.3637 2.2395 0.0050
0.3839 2.0927 0.0075
0.4041 1.9740 0.0259
0.4243 1.8968 0.1248
0.4445 1.8270 0.0039
0.4647 1.8037 0.0005
0.4849 1.8083 0.0005
0.5051 1.8425 0.0009
0.5253 1.9207 0.0008
0.5455 2.0088 0.0005
0.5657 2.1390 0.0004
0.5859 2.2929 0.0004
0.6061 2.4635 0.0005
0.6263 2.6458 0.0008
0.6465 2.8234 0.0020
0.6667 2.8055 0.0011
0.6869 2.6762 0.0007
0.7071 2.6149 0.0007
0.0000 1.8550 0.0002
0.0202 1.8658 0.0002
0.0404 1.9092 0.0002
0.0606 2.0810 0.0003
0.0808 2.3174 0.0004
0.1010 2.5638 0.0004
0.1212 2.8108 0.0005
0.1414 3.0384 0.0006
0.1616 2.9587 0.0005
0.1818 2.8569 0.0004
0.2020 2.8029 0.0009
0.2222 2.6862 0.0009
0.2424 2.6536 0.0005
0.2626 2.7630 0.0009
0.2828 2.8528 0.0012
0.3030 2.9135 0.0020
0.3232 3.0484 0.0509
0.3435 2.8916 0.9260
0.3637 2.6464 0.9393
0.3839 2.3989 0.9212
0.4041 2.1574 0.8523
0.4243 1.9494 0.4624
0.4445 1.8749 0.0157
0.4647 1.8562 0.0023
0.4849 1.8597 0.0009
0.5051 1.8880 0.0006
0.5253 2.0099 0.0011
0.5455 2.2366 0.0012
0.5657 2.4812 0.0016
0.5859 2.7289 0.0029
0.6061 2.9697 0.0075
0.6263 3.0045 0.0023
0.6465 2.8727 0.0011
0.6667 2.8402 0.0014
0.6869 2.7237 0.0013
0.7071 2.6424 0.0002
0.0000 3.6342 0.0003
0.0202 3.6176 0.0003
0.0404 3.5763 0.0003
0.0606 3.5229 0.0004
0.0808 3.4538 0.0003
0.1010 3.3517 0.0003
0.1212 3.2297 0.0003
0.1414 3.0991 0.0004
0.1616 2.9962 0.0010
0.1818 2.8801 0.0004
0.2020 2.8148 0.0005
0.2222 2.7045 0.0004
0.2424 2.6821 0.0003
0.2626 2.7771 0.0012
0.2828 2.8785 0.0018
0.3030 2.9497 0.0050
0.3232 3.0747 0.2289
0.3435 3.1866 0.0024
0.3637 3.3126 0.0023
0.3839 3.4232 0.0047
0.4041 3.5027 0.0115
0.4243 3.5595 0.0229
0.4445 3.6058 0.0538
0.4647 3.6322 0.1444
0.4849 3.6265 0.3534
0.5051 3.5918 0.5692
0.5253 3.5418 0.6213
0.5455 3.4800 0.4020
0.5657 3.3889 0.0710
0.5859 3.2718 0.0143
0.6061 3.1429 0.0050
0.6263 3.0411 0.0078
0.6465 2.9035 0.0066
0.6667 2.8515 0.0056
0.6869 2.7393 0.0015
0.7071 2.6799 0.0009
0.0000 3.6870 0.0005
0.0202 3.6661 0.0004
0.0404 3.6131 0.0003
0.0606 3.5539 0.0003
0.0808 3.4831 0.0004
0.1010 3.3884 0.0005
0.1212 3.2699 0.0007
0.1414 3.1397 0.0007
0.1616 3.0057 0.0003
0.1818 2.8913 0.0006
0.2020 2.8259 0.0003
0.2222 2.7250 0.0004
0.2424 2.7059 0.0007
0.2626 2.7862 0.0004
0.2828 2.9016 0.0016
0.3030 2.9596 0.0043
0.3232 3.0963 0.0252
0.3435 3.2272 0.0024
0.3637 3.3509 0.0015
0.3839 3.4546 0.0030
0.4041 3.5327 0.0052
0.4243 3.5938 0.0094
0.4445 3.6501 0.0249
0.4647 3.6847 0.0756
0.4849 3.6780 0.3192
0.5051 3.6321 0.7274
0.5253 3.5741 0.7501
0.5455 3.5092 0.4573
0.5657 3.4232 0.2053
0.5859 3.3112 0.0549
0.6061 3.1838 0.0209
0.6263 3.0520 0.0089
0.6465 2.9160 0.0014
0.6667 2.8670 0.0018
0.6869 2.7519 0.0041
0.7071 2.6963 0.0042
0.0000 3.7151 0.0006
0.0202 3.6844 0.0006
0.0404 3.6398 0.0006
0.0606 3.5724 0.0005
0.0808 3.4965 0.0006
0.1010 3.4141 0.0006
0.1212 3.2927 0.0007
0.1414 3.1595 0.0008
0.1616 3.0491 0.0005
0.1818 2.9353 0.0004
0.2020 2.8779 0.0004
0.2222 2.7654 0.0003
0.2424 2.7373 0.0004
0.2626 2.8385 0.0005
0.2828 2.9232 0.0022
0.3030 3.0054 0.0062
0.3232 3.1261 0.1331
0.3435 3.2481 0.0075
0.3637 3.3771 0.0035
0.3839 3.4718 0.0024
0.4041 3.5465 0.0017
0.4243 3.6198 0.0033
0.4445 3.6717 0.0080
0.4647 3.7081 0.0648
0.4849 3.6964 0.4490
0.5051 3.6571 0.2009
0.5253 3.5972 0.2016
0.5455 3.5209 0.5101
0.5657 3.4452 0.4272
0.5859 3.3360 0.0472
0.6061 3.2032 0.0098
0.6263 3.0915 0.0063
0.6465 2.9636 0.0018
0.6667 2.9148 0.0048
0.6869 2.8004 0.0022
0.7071 2.7253 0.0005
0.0000 3.7234 0.0007
0.0202 3.7109 0.0008
0.0404 3.6773 0.0008
0.0606 3.6168 0.0009
0.0808 3.5332 0.0010
0.1010 3.4294 0.0008
0.1212 3.3165 0.0006
0.1414 3.1939 0.0004
0.1616 3.0778 0.0005
0.1818 2.9521 0.0006
0.2020 3.0199 0.0004
0.2222 3.2165 0.0008
0.2424 3.2755 0.0021
0.2626 3.0849 0.0025
0.2828 2.9334 0.0041
0.3030 3.0341 0.0021
0.3232 3.1592 0.0853
0.3435 3.2758 0.0056
0.3637 3.3932 0.0020
0.3839 3.5008 0.0033
0.4041 3.5909 0.0023
0.4243 3.6605 0.0040
0.4445 3.7018 0.0130
0.4647 3.7227 0.0695
0.4849 3.7181 0.1102
0.5051 3.6908 0.0986
0.5253 3.6402 0.1211
0.5455 3.5630 0.2014
0.5657 3.4657 0.1172
0.5859 3.3557 0.0873
0.6061 3.2345 0.0225
0.6263 3.1210 0.0093
0.6465 2.9910 0.0028
0.6667 2.9605 0.0069
0.6869 3.1511 0.0243
0.7071 3.3023 0.6209
0.0000 3.7284 0.0005
0.0202 3.7241 0.0005
0.0404 3.6907 0.0008
0.0606 3.6332 0.0009
0.0808 3.5488 0.0009
0.1010 3.4573 0.0009
0.1212 3.3472 0.0007
0.1414 3.2178 0.0006
0.1616 3.0927 0.0008
0.1818 2.9635 0.0008
0.2020 3.0539 0.0002
0.2222 3.2487 0.0003
0.2424 3.3062 0.0029
0.2626 3.1188 0.0030
0.2828 2.9559 0.0019
0.3030 3.0464 0.0035
0.3232 3.1801 0.1066
0.3435 3.3045 0.0061
0.3637 3.4242 0.0034
0.3839 3.5187 0.0028
0.4041 3.6075 0.0034
0.4243 3.6746 0.0066
0.4445 3.7156 0.0211
0.4647 3.7296 0.1609
0.4849 3.7292 0.1039
0.5051 3.7044 0.0868
0.5253 3.6555 0.0401
0.5455 3.5789 0.0903
0.5657 3.4885 0.3083
0.5859 3.3876 0.1809
0.6061 3.2610 0.0344
0.6263 3.1394 0.0230
0.6465 3.0021 0.0147
0.6667 2.9928 0.0034
0.6869 3.1843 0.0104
0.7071 3.3107 0.8095
0.0000 3.7521 0.0005
0.0202 3.7452 0.0007
0.0404 3.7160 0.0006
0.0606 3.6485 0.0005
0.0808 3.5630 0.0004
0.1010 3.4838 0.0005
0.1212 3.3797 0.0008
0.1414 3.2411 0.0008
0.1616 3.1110 0.0005
0.1818 2.9834 0.0005
0.2020 3.0968 0.0009
0.2222 3.2806 0.0015
0.2424 3.3085 0.0026
0.2626 3.1621 0.0035
0.2828 2.9904 0.0020
0.3030 3.0640 0.0050
0.3232 3.1976 0.0849
0.3435 3.3347 0.0045
0.3637 3.4570 0.0049
0.3839 3.5342 0.0029
0.4041 3.6211 0.0052
0.4243 3.6967 0.0133
0.4445 3.7404 0.0452
0.4647 3.7503 0.0772
0.4849 3.7477 0.1158
0.5051 3.7309 0.0342
0.5253 3.6740 0.0521
0.5455 3.5924 0.1286
0.5657 3.5079 0.5109
0.5859 3.4215 0.2308
0.6061 3.2883 0.0466
0.6263 3.1575 0.0102
0.6465 3.0188 0.0061
0.6667 3.0342 0.0085
0.6869 3.2260 0.0842
0.7071 3.3467 0.0674
0.0000 3.7739 0.0005
0.0202 3.7597 0.0006
0.0404 3.7400 0.0008
0.0606 3.7099 0.0011
0.0808 3.6302 0.0009
0.1010 3.5131 0.0007
0.1212 3.4012 0.0005
0.1414 3.2627 0.0006
0.1616 3.1570 0.0003
0.1818 3.0255 0.0003
0.2020 3.1247 0.0004
0.2222 3.3142 0.0009
0.2424 3.3389 0.0026
0.2626 3.1899 0.0032
0.2828 3.0106 0.0037
0.3030 3.1115 0.0046
0.3232 3.2225 0.1555
0.3435 3.3563 0.0029
0.3637 3.4766 0.0003
0.3839 3.5924 0.0014
0.4041 3.6907 0.0061
0.4243 3.7326 0.0124
0.4445 3.7532 0.0389
0.4647 3.7699 0.0754
0.4849 3.7650 0.1448
0.5051 3.7466 0.0624
0.5253 3.7231 0.0703
0.5455 3.6638 0.0850
0.5657 3.5527 0.1468
0.5859 3.4418 0.2821
0.6061 3.3097 0.0424
0.6263 3.2006 0.0047
0.6465 3.0667 0.0034
0.6667 3.0618 0.0038
0.6869 3.2550 0.0365
0.7071 3.3507 0.0252
0.0000 3.7802 0.0006
0.0202 3.7862 0.0005
0.0404 3.7702 0.0006
0.0606 3.7383 0.0004
0.0808 3.6543 0.0006
0.1010 3.5396 0.0007
0.1212 3.4387 0.0004
0.1414 3.3044 0.0003
0.1616 3.3165 0.0006
0.1818 3.3501 0.0007
0.2020 3.3394 0.0008
0.2222 3.3449 0.0009
0.2424 3.3831 0.0034
0.2626 3.3377 0.0042
0.2828 3.3461 0.0128
0.3030 3.3495 0.2247
0.3232 3.2603 0.0672
0.3435 3.3972 0.0022
0.3637 3.5010 0.0028
0.3839 3.6183 0.0030
0.4041 3.7153 0.0017
0.4243 3.7628 0.0261
0.4445 3.7822 0.0502
0.4647 3.7841 0.2900
0.4849 3.7871 0.0130
0.5051 3.7767 0.0288
0.5253 3.7534 0.0172
0.5455 3.6869 0.0111
0.5657 3.5796 0.0610
0.5859 3.4688 0.5149
0.6061 3.3513 0.0390
0.6263 3.2613 0.0692
0.6465 3.3532 0.8782
0.6667 3.3423 0.9269
0.6869 3.3384 0.8582
0.7071 3.3912 0.1760
0.0000 3.8081 0.0005
0.0202 3.7996 0.0007
0.0404 3.7831 0.0007
0.0606 3.7519 0.0006
0.0808 3.6879 0.0008
0.1010 3.5672 0.0007
0.1212 3.4604 0.0008
0.1414 3.4120 0.0008
0.1616 3.3816 0.0009
0.1818 3.3614 0.0010
0.2020 3.3480 0.0012
0.2222 3.3571 0.0011
0.2424 3.3999 0.0017
0.2626 3.3455 0.0020
0.2828 3.3561 0.0041
0.3030 3.3741 0.0095
0.3232 3.4003 0.0072
0.3435 3.4410 0.0028
0.3637 3.5264 0.0020
0.3839 3.6501 0.0060
0.4041 3.7391 0.0190
0.4243 3.7747 0.0055
0.4445 3.7946 0.0153
0.4647 3.8067 0.0319
0.4849 3.8037 0.0412
0.5051 3.7894 0.0085
0.5253 3.7637 0.0066
0.5455 3.7189 0.0079
0.5657 3.6092 0.0547
0.5859 3.4898 0.3796
0.6061 3.4256 0.8458
0.6263 3.3902 0.9103
0.6465 3.3674 0.9386
0.6667 3.3516 0.9406
0.6869 3.3456 0.8625
0.7071 3.4247 0.0086
0.0000 3.8160 0.0003
0.0202 3.8124 0.0003
0.0404 3.7958 0.0004
0.0606 3.7807 0.0009
0.0808 3.7184 0.0005
0.1010 3.5936 0.0004
0.1212 3.4679 0.0004
0.1414 3.4171 0.0006
0.1616 3.4032 0.0008
0.1818 3.5783 0.0012
0.2020 3.6770 0.0025
0.2222 3.5042 0.0022
0.2424 3.4436 0.0012
0.2626 3.6272 0.0073
0.2828 3.6499 0.8115
0.3030 3.4382 0.6866
0.3232 3.4075 0.0217
0.3435 3.4449 0.0063
0.3637 3.5484 0.0036
0.3839 3.6801 0.0056
0.4041 3.7710 0.0021
0.4243 3.7902 0.0355
0.4445 3.8083 0.1262
0.4647 3.8154 0.1925
0.4849 3.8146 0.1014
0.5051 3.8023 0.0425
0.5253 3.7856 0.0096
0.5455 3.7493 0.0126
0.5657 3.6379 0.0133
0.5859 3.5043 0.1304
0.6061 3.4291 0.8559
0.6263 3.4008 0.8780
0.6465 3.5048 0.0695
0.6667 3.6995 0.0122
0.6869 3.5674 0.0110
0.7071 3.4551 0.0768
0.0000 3.8230 0.0016
0.0202 3.8520 0.0009
0.0404 3.8862 0.0009
0.0606 3.8147 0.0009
0.0808 3.7657 0.0008
0.1010 3.7522 0.0009
0.1212 3.7522 0.0011
0.1414 3.7574 0.0012
0.1616 3.7637 0.0014
0.1818 3.7589 0.0018
0.2020 3.7013 0.0031
0.2222 3.5360 0.0032
0.2424 3.4805 0.0006
0.2626 3.6500 0.0047
0.2828 3.7477 0.0378
0.3030 3.7647 0.0061
0.3232 3.7596 0.0041
0.3435 3.7534 0.0040
0.3637 3.7514 0.0046
0.3839 3.7584 0.0059
0.4041 3.7923 0.0238
0.4243 3.8678 0.0903
0.4445 3.8682 0.6765
0.4647 3.8268 0.4061
0.4849 3.8375 0.0601
0.5051 3.8824 0.0227
0.5253 3.8414 0.0070
0.5455 3.7784 0.0019
0.5657 3.7545 0.0038
0.5859 3.7514 0.0045
0.6061 3.7553 0.0042
0.6263 3.7618 0.0036
0.6465 3.7637 0.0028
0.6667 3.7341 0.0033
0.6869 3.5943 0.0061
0.7071 3.4597 0.0968
0.0000 3.8692 0.0004
0.0202 3.8814 0.0006
0.0404 3.9032 0.0010
0.0606 3.8378 0.0005
0.0808 3.7841 0.0003
0.1010 3.7737 0.0004
0.1212 3.7693 0.0005
0.1414 3.7707 0.0006
0.1616 3.7762 0.0008
0.1818 3.7827 0.0012
0.2020 3.7574 0.0036
0.2222 3.5850 0.0044
0.2424 3.5215 0.0016
0.2626 3.7050 0.0022
0.2828 3.7795 0.0048
0.3030 3.7786 0.0048
0.3232 3.7722 0.0034
0.3435 3.7692 0.0034
0.3637 3.7715 0.0034
0.3839 3.7801 0.0025
0.4041 3.8124 0.0024
0.4243 3.8891 0.0501
0.4445 3.8921 0.5738
0.4647 3.8702 0.2431
0.4849 3.8741 0.0694
0.5051 3.9023 0.0139
0.5253 3.8642 0.0042
0.5455 3.7922 0.0013
0.5657 3.7768 0.0029
0.5859 3.7701 0.0045
0.6061 3.7698 0.0038
0.6263 3.7740 0.0029
0.6465 3.7810 0.0020
0.6667 3.7602 0.0015
0.6869 3.6468 0.0095
0.7071 3.4636 0.0135
0.0000 3.9984 0.0016
0.0202 3.9803 0.0016
0.0404 3.9134 0.0005
0.0606 3.8572 0.0004
0.0808 3.8026 0.0005
0.1010 3.7875 0.0006
0.1212 3.7871 0.0007
0.1414 3.7917 0.0008
0.1616 3.7989 0.0009
0.1818 3.7981 0.0011
0.2020 3.7640 0.0017
0.2222 3.5976 0.0016
0.2424 3.5342 0.0006
0.2626 3.7217 0.0031
0.2828 3.7913 0.0381
0.3030 3.8008 0.0049
0.3232 3.7940 0.0043
0.3435 3.7881 0.0053
0.3637 3.7866 0.0078
0.3839 3.7945 0.0148
0.4041 3.8347 0.0417
0.4243 3.8979 0.2371
0.4445 3.9603 0.0217
0.4647 3.9967 0.0220
0.4849 3.9913 0.0101
0.5051 3.9362 0.0080
0.5253 3.8803 0.0025
0.5455 3.8158 0.0101
0.5657 3.7900 0.0090
0.5859 3.7865 0.0039
0.6061 3.7898 0.0020
0.6263 3.7964 0.0012
0.6465 3.8010 0.0020
0.6667 3.7873 0.0011
0.6869 3.6610 0.0064
0.7071 3.4864 0.0141
0.0000 4.0246 0.0010
0.0202 3.9882 0.0005
0.0404 3.9496 0.0005
0.0606 3.8713 0.0005
0.0808 3.8171 0.0006
0.1010 3.8020 0.0007
0.1212 3.7981 0.0007
0.1414 3.7996 0.0007
0.1616 3.8038 0.0007
0.1818 3.8079 0.0008
0.2020 3.7897 0.0014
0.2222 3.7383 0.0022
0.2424 3.7279 0.0031
0.2626 3.7733 0.0287
0.2828 3.8068 0.0021
0.3030 3.8053 0.0042
0.3232 3.8008 0.0037
0.3435 3.7981 0.0040
0.3637 3.7999 0.0052
0.3839 3.8101 0.0067
0.4041 3.8457 0.0019
0.4243 3.9268 0.0469
0.4445 3.9728 0.0788
0.4647 4.0191 0.0087
0.4849 4.0055 0.0048
0.5051 3.9590 0.0032
0.5253 3.8999 0.0176
0.5455 3.8280 0.0131
0.5657 3.8055 0.0086
0.5859 3.7987 0.0070
0.6061 3.7987 0.0061
0.6263 3.8023 0.0053
0.6465 3.8068 0.0034
0.6667 3.8025 0.0027
0.6869 3.7547 0.0030
0.7071 3.7244 0.0046
0.0000 4.0419 0.0004
0.0202 4.0172 0.0004
0.0404 3.9594 0.0004
0.0606 3.9932 0.0006
0.0808 4.0312 0.0007
0.1010 4.0497 0.0015
0.1212 4.0487 0.0021
0.1414 4.0273 0.0025
0.1616 3.9836 0.0028
0.1818 3.8944 0.0031
0.2020 3.7967 0.0017
0.2222 3.7558 0.0008
0.2424 3.7487 0.0015
0.2626 3.7792 0.0017
0.2828 3.8547 0.0126
0.3030 3.9596 0.0073
0.3232 4.0159 0.0116
0.3435 4.0437 0.0225
0.3637 4.0516 0.0608
0.3839 4.0394 0.1822
0.4041 4.0076 0.4519
0.4243 3.9658 0.6334
0.4445 3.9994 0.0175
0.4647 4.0391 0.0088
0.4849 4.0306 0.0193
0.5051 3.9781 0.0198
0.5253 3.9788 0.0078
0.5455 4.0205 0.0084
0.5657 4.0455 0.0046
0.5859 4.0513 0.0022
0.6061 4.0366 0.0011
0.6263 4.0016 0.0015
0.6465 3.9298 0.0028
0.6667 3.8142 0.0055
0.6869 3.7661 0.0056
0.7071 3.7463 0.0045
0.0000 4.0451 0.0015
0.0202 4.0459 0.0010
0.0404 4.0038 0.0006
0.0606 4.0271 0.0005
0.0808 4.0832 0.0011
0.1010 4.0965 0.0010
0.1212 4.0821 0.0010
0.1414 4.0466 0.0015
0.1616 3.9942 0.0024
0.1818 3.9209 0.0029
0.2020 3.8199 0.0011
0.2222 3.7735 0.0022
0.2424 3.7616 0.0031
0.2626 3.8115 0.0284
0.2828 3.8857 0.0009
0.3030 3.9739 0.0026
0.3232 4.0310 0.0038
0.3435 4.0722 0.0127
0.3637 4.0948 0.0403
0.3839 4.0908 0.1193
0.4041 4.0481 0.6607
0.4243 3.9980 0.4550
0.4445 4.0381 0.0264
0.4647 4.0456 0.0090
0.4849 4.0466 0.0066
0.5051 4.0208 0.0081
0.5253 4.0083 0.0134
0.5455 4.0679 0.0072
0.5657 4.0949 0.0036
0.5859 4.0898 0.0051
0.6061 4.0604 0.0042
0.6263 4.0131 0.0027
0.6465 3.9502 0.0005
0.6667 3.8464 0.0024
0.6869 3.7917 0.0012
0.7071 3.7575 0.0004
0.0000 4.0825 0.0008
0.0202 4.0669 0.0013
0.0404 4.0568 0.0023
0.0606 4.0690 0.0024
0.0808 4.0885 0.0017
0.1010 4.1097 0.0014
0.1212 4.1006 0.0007
0.1414 4.0668 0.0005
0.1616 4.0207 0.0006
0.1818 3.9332 0.0037
0.2020 3.8411 0.0036
0.2222 3.7980 0.0017
0.2424 3.7879 0.0021
0.2626 3.8283 0.0147
0.2828 3.8938 0.0044
0.3030 4.0006 0.0057
0.3232 4.0529 0.0065
0.3435 4.0909 0.0126
0.3637 4.1109 0.0276
0.3839 4.0978 0.1655
0.4041 4.0750 0.1078
0.4243 4.0598 0.0698
0.4445 4.0574 0.0478
0.4647 4.0819 0.0215
0.4849 4.0775 0.0043
0.5051 4.0555 0.0048
0.5253 4.0638 0.0050
0.5455 4.0814 0.0018
0.5657 4.1052 0.0068
0.5859 4.1078 0.0014
0.6061 4.0795 0.0009
0.6263 4.0374 0.0011
0.6465 3.9729 0.0016
0.6667 3.8634 0.0012
0.6869 3.8115 0.0013
0.7071 3.7842 0.0042
0.0000 4.0963 0.0008
0.0202 4.0791 0.0018
0.0404 4.0755 0.0019
0.0606 4.0873 0.0020
0.0808 4.1149 0.0018
0.1010 4.1303 0.0009
0.1212 4.1245 0.0018
0.1414 4.0928 0.0017
0.1616 4.0404 0.0017
0.1818 3.9490 0.0017
0.2020 3.8509 0.0023
0.2222 3.8454 0.0015
0.2424 3.8429 0.0028
0.2626 3.8560 0.1319
0.2828 3.9139 0.0122
0.3030 4.0152 0.0049
0.3232 4.0777 0.0053
0.3435 4.1171 0.0120
0.3637 4.1289 0.0677
0.3839 4.1252 0.3480
0.4041 4.0942 0.1849
0.4243 4.0782 0.0550
0.4445 4.0753 0.0356
0.4647 4.0929 0.0130
0.4849 4.0857 0.0078
0.5051 4.0744 0.0058
0.5253 4.0822 0.0057
0.5455 4.1034 0.0082
0.5657 4.1302 0.0020
0.5859 4.1276 0.0033
0.6061 4.1061 0.0042
0.6263 4.0603 0.0043
0.6465 3.9827 0.0029
0.6667 3.8762 0.0029
0.6869 3.8510 0.0053
0.7071 3.8422 0.0058
0.0000 4.1372 0.0010
0.0202 4.1318 0.0004
0.0404 4.1354 0.0003
0.0606 4.1416 0.0003
0.0808 4.1469 0.0008
0.1010 4.1613 0.0016
0.1212 4.1535 0.0012
0.1414 4.1619 0.0020
0.1616 4.0989 0.0029
0.1818 3.9827 0.0024
0.2020 3.8760 0.0006
0.2222 3.8706 0.0023
0.2424 3.8717 0.0031
0.2626 3.8651 0.1514
0.2828 3.9414 0.0012
0.3030 4.0541 0.0048
0.3232 4.1621 0.0118
0.3435 4.1547 0.0094
0.3637 4.1603 0.0274
0.3839 4.1503 0.1282
0.4041 4.1435 0.0584
0.4243 4.1374 0.0440
0.4445 4.1323 0.0162
0.4647 4.1381 0.0167
0.4849 4.1334 0.0035
0.5051 4.1337 0.0056
0.5253 4.1395 0.0040
0.5455 4.1451 0.0022
0.5657 4.1567 0.0043
0.5859 4.1562 0.0026
0.6061 4.1583 0.0016
0.6263 4.1424 0.0010
0.6465 4.0160 0.0021
0.6667 3.9048 0.0004
0.6869 3.8700 0.0023
0.7071 3.8722 0.0009
0.0000 4.1436 0.0009
0.0202 4.1438 0.0006
0.0404 4.1533 0.0004
0.0606 4.1686 0.0004
0.0808 4.1822 0.0007
0.1010 4.1778 0.0011
0.1212 4.1884 0.0018
0.1414 4.1989 0.0028
0.1616 4.1254 0.0043
0.1818 3.9970 0.0019
0.2020 3.8980 0.0019
0.2222 3.8919 0.0024
0.2424 3.8969 0.0233
0.2626 3.8848 0.1159
0.2828 3.9565 0.0127
0.3030 4.0821 0.0054
0.3232 4.1868 0.0049
0.3435 4.1935 0.0222
0.3637 4.1798 0.0710
0.3839 4.1802 0.0730
0.4041 4.1751 0.1814
0.4243 4.1577 0.0804
0.4445 4.1464 0.0446
0.4647 4.1393 0.0132
0.4849 4.1415 0.0172
0.5051 4.1495 0.0107
0.5253 4.1627 0.0077
0.5455 4.1809 0.0037
0.5657 4.1782 0.0009
0.5859 4.1836 0.0025
0.6061 4.1980 0.0014
0.6263 4.1618 0.0006
0.6465 4.0405 0.0013
0.6667 3.9209 0.0026
0.6869 3.8859 0.0024
0.7071 3.8993 0.0036
0.0000 4.1508 0.0016
0.0202 4.1664 0.0013
0.0404 4.1827 0.0014
0.0606 4.1902 0.0009
0.0808 4.1923 0.0008
0.1010 4.1954 0.0006
0.1212 4.2069 0.0002
0.1414 4.2192 0.0003
0.1616 4.1469 0.0005
0.1818 4.0183 0.0005
0.2020 3.9425 0.0009
0.2222 3.9152 0.0033
0.2424 3.9124 0.0133
0.2626 3.9276 0.0262
0.2828 3.9874 0.0099
0.3030 4.1029 0.0024
0.3232 4.2109 0.0248
0.3435 4.2121 0.0747
0.3637 4.1979 0.1197
0.3839 4.1952 0.1857
0.4041 4.1900 0.0216
0.4243 4.1866 0.0204
0.4445 4.1724 0.0130
0.4647 4.1548 0.0088
0.4849 4.1604 0.0030
0.5051 4.1779 0.0016
0.5253 4.1892 0.0006
0.5455 4.1895 0.0016
0.5657 4.1952 0.0067
0.5859 4.2020 0.0063
0.6061 4.2169 0.0070
0.6263 4.1813 0.0011
0.6465 4.0585 0.0040
0.6667 3.9633 0.0058
0.6869 3.9194 0.0021
0.7071 3.9108 0.0006
0.0000 4.1664 0.0003
0.0202 4.1767 0.0008
0.0404 4.1907 0.0007
0.0606 4.1998 0.0013
0.0808 4.2084 0.0007
0.1010 4.2211 0.0015
0.1212 4.2451 0.0021
0.1414 4.2589 0.0023
0.1616 4.1613 0.0008
0.1818 4.0451 0.0015
0.2020 3.9608 0.0009
0.2222 3.9429 0.0125
0.2424 3.9383 0.0149
0.2626 3.9523 0.1270
0.2828 4.0124 0.0118
0.3030 4.1313 0.0081
0.3232 4.2292 0.0270
0.3435 4.2532 0.1185
0.3637 4.2288 0.2700
0.3839 4.2099 0.1804
0.4041 4.2032 0.1091
0.4243 4.1940 0.0334
0.4445 4.1817 0.0156
0.4647 4.1681 0.0110
0.4849 4.1721 0.0048
0.5051 4.1865 0.0038
0.5253 4.1969 0.0038
0.5455 4.2064 0.0050
0.5657 4.2143 0.0007
0.5859 4.2369 0.0032
0.6061 4.2602 0.0044
0.6263 4.1937 0.0043
0.6465 4.0859 0.0027
0.6667 3.9833 0.0030
0.6869 3.9485 0.0070
0.7071 3.9365 0.0033
0.0000 4.1930 0.0008
0.0202 4.2056 0.0007
0.0404 4.2212 0.0008
0.0606 4.2249 0.0010
0.0808 4.2296 0.0021
0.1010 4.2764 0.0022
0.1212 4.3435 0.0009
0.1414 4.2802 0.0010
0.1616 4.1896 0.0038
0.1818 4.0628 0.0017
0.2020 3.9865 0.0042
0.2222 3.9593 0.0028
0.2424 3.9557 0.0195
0.2626 3.9752 0.0663
0.2828 4.0318 0.0051
0.3030 4.1369 0.0038
0.3232 4.2538 0.0100
0.3435 4.3488 0.3885
0.3637 4.2988 0.6443
0.3839 4.2403 0.3638
0.4041 4.2245 0.0327
0.4243 4.2238 0.0060
0.4445 4.2119 0.0034
0.4647 4.1947 0.0055
0.4849 4.1994 0.0088
0.5051 4.2172 0.0062
0.5253 4.2249 0.0043
0.5455 4.2249 0.0015
0.5657 4.2564 0.0017
0.5859 4.3223 0.0028
0.6061 4.3181 0.0008
0.6263 4.2328 0.0045
0.6465 4.0971 0.0024
0.6667 4.0054 0.0033
0.6869 3.9664 0.0018
0.7071 3.9549 0.0041
0.0000 4.2331 0.0003
0.0202 4.2426 0.0005
0.0404 4.2560 0.0008
0.0606 4.2627 0.0009
0.0808 4.2675 0.0009
0.1010 4.2920 0.0009
0.1212 4.3506 0.0021
0.1414 4.2976 0.0018
0.1616 4.2182 0.0019
0.1818 4.0863 0.0023
0.2020 4.0035 0.0020
0.2222 3.9824 0.0049
0.2424 3.9744 0.0007
0.2626 3.9961 0.1218
0.2828 4.0493 0.0043
0.3030 4.1766 0.0082
0.3232 4.2699 0.0641
0.3435 4.3627 0.5223
0.3637 4.3093 0.5386
0.3839 4.2717 0.1443
0.4041 4.2639 0.0310
0.4243 4.2591 0.0124
0.4445 4.2475 0.0087
0.4647 4.2344 0.0086
0.4849 4.2379 0.0078
0.5051 4.2522 0.0067
0.5253 4.2612 0.0064
0.5455 4.2652 0.0069
0.5657 4.2794 0.0067
0.5859 4.3299 0.0028
0.6061 4.3420 0.0014
0.6263 4.2453 0.0018
0.6465 4.1306 0.0018
0.6667 4.0223 0.0028
0.6869 3.9933 0.0011
0.7071 3.9713 0.0015
0.0000 5.0751 0.0012
0.0202 5.0437 0.0023
0.0404 4.9748 0.0027
0.0606 4.8778 0.0028
0.0808 4.7506 0.0027
0.1010 4.6011 0.0025
0.1212 4.4460 0.0025
0.1414 4.3311 0.0032
0.1616 4.2597 0.0013
0.1818 4.1253 0.0024
0.2020 4.0276 0.0047
0.2222 3.9951 0.0013
0.2424 3.9905 0.0062
0.2626 4.0093 0.0086
0.2828 4.0849 0.0066
0.3030 4.2217 0.0071
0.3232 4.2958 0.0197
0.3435 4.4055 0.2197
0.3637 4.5489 0.0100
0.3839 4.7027 0.0030
0.4041 4.8386 0.0020
0.4243 4.9459 0.0019
0.4445 5.0238 0.0016
0.4647 5.0710 0.0013
0.4849 5.0599 0.0012
0.5051 5.0008 0.0011
0.5253 4.9137 0.0009
0.5455 4.7961 0.0008
0.5657 4.6526 0.0008
0.5859 4.4965 0.0011
0.6061 4.3740 0.0019
0.6263 4.2723 0.0024
0.6465 4.1722 0.0013
0.6667 4.0521 0.0016
0.6869 4.0003 0.0039
0.7071 3.9888 0.0044
0.0000 5.0903 0.0021
0.0202 5.0643 0.0024
0.0404 4.9990 0.0035
0.0606 4.9074 0.0042
0.0808 4.7864 0.0052
0.1010 4.6390 0.0052
0.1212 4.4827 0.0053
0.1414 4.3683 0.0068
0.1616 4.2677 0.0026
0.1818 4.1432 0.0035
0.2020 4.0463 0.0027
0.2222 4.1111 0.0046
0.2424 4.1781 0.8161
0.2626 4.0347 0.1319
0.2828 4.1008 0.0037
0.3030 4.2383 0.0119
0.3232 4.3204 0.0227
0.3435 4.4407 0.2211
0.3637 4.5867 0.0141
0.3839 4.7396 0.0053
0.4041 4.8705 0.0034
0.4243 4.9716 0.0027
0.4445 5.0456 0.0022
0.4647 5.0875 0.0017
0.4849 5.0787 0.0013
0.5051 5.0237 0.0013
0.5253 4.9412 0.0013
0.5455 4.8301 0.0013
0.5657 4.6903 0.0012
0.5859 4.5339 0.0012
0.6061 4.4106 0.0009
0.6263 4.2959 0.0016
0.6465 4.1915 0.0027
0.6667 4.0688 0.0021
0.6869 4.0546 0.0015
0.7071 4.2339 0.0008
0.0000 5.1134 0.0105
0.0202 5.0876 0.0078
0.0404 5.0255 0.0058
0.0606 4.9301 0.0047
0.0808 4.8031 0.0033
0.1010 4.6540 0.0031
0.1212 4.4954 0.0037
0.1414 4.4136 0.0021
0.1616 4.2812 0.0034
0.1818 4.2781 0.0031
0.2020 4.3076 0.0070
0.2222 4.3340 0.1066
0.2424 4.3101 0.0210
0.2626 4.3186 0.0113
0.2828 4.2863 0.0134
0.3030 4.2723 0.0089
0.3232 4.3576 0.0066
0.3435 4.4464 0.1101
0.3637 4.6016 0.0056
0.3839 4.7553 0.0023
0.4041 4.8910 0.0017
0.4243 4.9974 0.0020
0.4445 5.0707 0.0017
0.4647 5.1098 0.0007
0.4849 5.1007 0.0011
0.5051 5.0499 0.0015
0.5253 4.9657 0.0010
0.5455 4.8484 0.0004
0.5657 4.7055 0.0003
0.5859 4.5483 0.0004
0.6061 4.4296 0.0027
0.6263 4.3056 0.0021
0.6465 4.2734 0.0042
0.6667 4.2965 0.0027
0.6869 4.3286 0.0015
0.7071 4.2619 0.0018
0.0000 5.1374 0.0059
0.0202 5.1230 0.0058
0.0404 5.0613 0.0044
0.0606 4.9687 0.0040
0.0808 4.8555 0.0043
0.1010 4.7111 0.0042
0.1212 4.5493 0.0040
0.1414 4.4259 0.0036
0.1616 4.2986 0.0041
0.1818 4.2932 0.0054
0.2020 4.3316 0.0112
0.2222 4.3606 0.1792
0.2424 4.3531 0.0157
0.2626 4.3447 0.0039
0.2828 4.3054 0.0026
0.3030 4.2780 0.0238
0.3232 4.3897 0.0929
0.3435 4.4962 0.0710
0.3637 4.6583 0.0086
0.3839 4.8106 0.0046
0.4041 4.9340 0.0039
0.4243 5.0328 0.0023
0.4445 5.1074 0.0017
0.4647 5.1367 0.0027
0.4849 5.1327 0.0022
0.5051 5.0865 0.0016
0.5253 5.0018 0.0014
0.5455 4.8966 0.0012
0.5657 4.7622 0.0011
0.5859 4.6040 0.0010
0.6061 4.4552 0.0008
0.6263 4.3429 0.0016
0.6465 4.2823 0.0012
0.6667 4.3184 0.0008
0.6869 4.3563 0.0010
0.7071 4.3529 0.0010
0.0000 5.1660 0.0081
0.0202 5.1449 0.0081
0.0404 5.0856 0.0067
0.0606 5.0044 0.0047
0.0808 4.8986 0.0022
0.1010 4.7601 0.0017
0.1212 4.5953 0.0014
0.1414 4.4486 0.0007
0.1616 4.3409 0.0015
0.1818 4.3393 0.0005
0.2020 4.3685 0.0012
0.2222 4.3960 0.1241
0.2424 4.3932 0.0067
0.2626 4.3795 0.0101
0.2828 4.3476 0.0128
0.3030 4.3351 0.0276
0.3232 4.4154 0.1182
0.3435 4.5369 0.0082
0.3637 4.7076 0.0018
0.3839 4.8561 0.0012
0.4041 4.9725 0.0007
0.4243 5.0608 0.0003
0.4445 5.1285 0.0003
0.4647 5.1638 0.0003
0.4849 5.1569 0.0006
0.5051 5.1084 0.0008
0.5253 5.0338 0.0010
0.5455 4.9373 0.0008
0.5657 4.8098 0.0007
0.5859 4.6524 0.0008
0.6061 4.4792 0.0006
0.6263 4.3692 0.0041
0.6465 4.3346 0.0021
0.6667 4.3576 0.0033
0.6869 4.3900 0.0037
0.7071 4.3950 0.0012
0.0000 5.1758 0.0009
0.0202 5.1624 0.0015
0.0404 5.1098 0.0035
0.0606 5.0246 0.0046
0.0808 4.9200 0.0045
0.1010 4.7923 0.0026
0.1212 4.6356 0.0017
0.1414 4.4896 0.0020
0.1616 4.3743 0.0009
0.1818 4.3630 0.0045
0.2020 4.3968 0.0100
0.2222 4.4131 0.2008
0.2424 4.4134 0.0116
0.2626 4.4075 0.0162
0.2828 4.3739 0.0204
0.3030 4.3527 0.0084
0.3232 4.4629 0.1460
0.3435 4.5805 0.0273
0.3637 4.7427 0.0058
0.3839 4.8807 0.0033
0.4041 4.9918 0.0011
0.4243 5.0842 0.0010
0.4445 5.1495 0.0011
0.4647 5.1745 0.0013
0.4849 5.1704 0.0010
0.5051 5.1318 0.0009
0.5253 5.0556 0.0010
0.5455 4.9570 0.0013
0.5657 4.8382 0.0012
0.5859 4.6901 0.0014
0.6061 4.5277 0.0022
0.6263 4.4166 0.0008
0.6465 4.3541 0.0043
0.6667 4.3854 0.0042
0.6869 4.4163 0.0042
0.7071 4.4159 0.0029
0.0000 5.2101 0.0030
0.0202 5.1874 0.0037
0.0404 5.1376 0.0033
0.0606 5.0419 0.0021
0.0808 4.9375 0.0023
0.1010 4.8332 0.0022
0.1212 4.6827 0.0017
0.1414 4.5262 0.0023
0.1616 4.5502 0.0087
0.1818 4.5453 0.0246
0.2020 4.4926 0.0849
0.2222 4.4225 0.0384
0.2424 4.4257 0.0110
0.2626 4.4702 0.0314
0.2828 4.5301 0.0855
0.3030 4.5587 0.4068
0.3232 4.5161 0.6451
0.3435 4.6261 0.0381
0.3637 4.7887 0.0125
0.3839 4.9046 0.0064
0.4041 5.0059 0.0032
0.4243 5.1099 0.0018
0.4445 5.1747 0.0009
0.4647 5.2066 0.0004
0.4849 5.1981 0.0005
0.5051 5.1587 0.0009
0.5253 5.0773 0.0019
0.5455 4.9710 0.0022
0.5657 4.8708 0.0021
0.5859 4.7377 0.0015
0.6061 4.5709 0.0010
0.6263 4.5331 0.0009
0.6465 4.5561 0.0018
0.6667 4.5123 0.0019
0.6869 4.4421 0.0009
0.7071 4.4280 0.0060
0.0000 5.2319 0.0044
0.0202 5.2114 0.0036
0.0404 5.1487 0.0033
0.0606 5.0771 0.0044
0.0808 4.9952 0.0060
0.1010 4.8723 0.0019
0.1212 4.7188 0.0016
0.1414 4.5568 0.0019
0.1616 4.5727 0.0022
0.1818 4.5781 0.0048
0.2020 4.5262 0.0203
0.2222 4.4697 0.0437
0.2424 4.4538 0.0175
0.2626 4.5075 0.0197
0.2828 4.5622 0.0664
0.3030 4.5882 0.5009
0.3232 4.5376 0.5890
0.3435 4.6623 0.0222
0.3637 4.8254 0.0064
0.3839 4.9582 0.0044
0.4041 5.0513 0.0016
0.4243 5.1255 0.0010
0.4445 5.1941 0.0009
0.4647 5.2302 0.0010
0.4849 5.2236 0.0016
0.5051 5.1724 0.0017
0.5253 5.1020 0.0013
0.5455 5.0242 0.0016
0.5657 4.9156 0.0019
0.5859 4.7736 0.0009
0.6061 4.6062 0.0005
0.6263 4.5512 0.0011
0.6465 4.5890 0.0009
0.6667 4.5445 0.0014
0.6869 4.4884 0.0023
0.7071 4.4458 0.0007
0.0000 5.2590 0.0030
0.0202 5.2567 0.0023
0.0404 5.2074 0.0018
0.0606 5.1181 0.0016
0.0808 5.0020 0.0021
0.1010 4.8913 0.0052
0.1212 4.7947 0.0061
0.1414 4.7254 0.0070
0.1616 4.6766 0.0063
0.1818 4.6519 0.0191
0.2020 4.5938 0.0732
0.2222 4.5186 0.1590
0.2424 4.5050 0.0187
0.2626 4.5714 0.0094
0.2828 4.6330 0.0183
0.3030 4.6727 0.3454
0.3232 4.7056 0.0798
0.3435 4.7696 0.0244
0.3637 4.8534 0.0073
0.3839 4.9664 0.0011
0.4041 5.0816 0.0013
0.4243 5.1813 0.0008
0.4445 5.2465 0.0012
0.4647 5.2594 0.0020
0.4849 5.2597 0.0024
0.5051 5.2294 0.0014
0.5253 5.1515 0.0017
0.5455 5.0425 0.0017
0.5657 4.9319 0.0009
0.5859 4.8220 0.0023
0.6061 4.7465 0.0023
0.6263 4.6885 0.0018
0.6465 4.6681 0.0023
0.6667 4.6137 0.0026
0.6869 4.5437 0.0021
0.7071 4.5010 0.0030
0.0000 5.2890 0.0014
0.0202 5.2695 0.0021
0.0404 5.2160 0.0039
0.0606 5.1269 0.0041
0.0808 5.0272 0.0024
0.1010 4.9101 0.0048
0.1212 4.8206 0.0050
0.1414 4.7467 0.0065
0.1616 4.6930 0.0128
0.1818 4.6809 0.0113
0.2020 4.6280 0.0438
0.2222 4.5709 0.0656
0.2424 4.5609 0.0159
0.2626 4.6087 0.0139
0.2828 4.6641 0.0384
0.3030 4.6883 0.3491
0.3232 4.7251 0.0563
0.3435 4.7942 0.0141
0.3637 4.8782 0.0046
0.3839 4.9897 0.0016
0.4041 5.0937 0.0003
0.4243 5.1893 0.0005
0.4445 5.2566 0.0006
0.4647 5.2862 0.0012
0.4849 5.2793 0.0014
0.5051 5.2388 0.0021
0.5253 5.1593 0.0015
0.5455 5.0603 0.0017
0.5657 4.9464 0.0019
0.5859 4.8485 0.0012
0.6061 4.7695 0.0012
0.6263 4.7063 0.0017
0.6465 4.6923 0.0022
0.6667 4.6462 0.0029
0.6869 4.5876 0.0027
0.7071 4.5574 0.0020
0.0000 5.3002 0.0028
0.0202 5.2954 0.0049
0.0404 5.2558 0.0031
0.0606 5.1629 0.0023
0.0808 5.0380 0.0021
0.1010 4.9379 0.0025
0.1212 4.8588 0.0058
0.1414 4.7879 0.0081
0.1616 4.7223 0.0103
0.1818 4.7227 0.0183
0.2020 4.7055 0.6921
0.2222 4.6032 0.0628
0.2424 4.5948 0.0156
0.2626 4.6525 0.0081
0.2828 4.7540 0.8319
0.3030 4.7047 0.1086
0.3232 4.7652 0.0059
0.3435 4.8342 0.0018
0.3637 4.9105 0.0009
0.3839 4.9981 0.0003
0.4041 5.1239 0.0014
0.4243 5.2297 0.0014
0.4445 5.2881 0.0013
0.4647 5.3008 0.0012
0.4849 5.2999 0.0008
0.5051 5.2757 0.0012
0.5253 5.1984 0.0013
0.5455 5.0820 0.0013
0.5657 4.9668 0.0017
0.5859 4.8842 0.0023
0.6061 4.8106 0.0027
0.6263 4.7431 0.0029
0.6465 4.6988 0.0018
0.6667 4.7592 0.0020
0.6869 4.6195 0.0031
0.7071 4.5919 0.0037
0.0000 5.3327 0.0025
0.0202 5.3280 0.0021
0.0404 5.2950 0.0026
0.0606 5.2134 0.0036
0.0808 5.0987 0.0052
0.1010 4.9851 0.0066
0.1212 4.8967 0.0060
0.1414 4.8233 0.0060
0.1616 4.7576 0.0071
0.1818 4.7480 0.0216
0.2020 4.8303 0.0279
0.2222 4.9386 0.1051
0.2424 4.9666 0.7251
0.2626 4.8674 0.8994
0.2828 4.7712 0.7190
0.3030 4.7403 0.1131
0.3232 4.8003 0.0105
0.3435 4.8709 0.0041
0.3637 4.9532 0.0029
0.3839 5.0588 0.0026
0.4041 5.1773 0.0021
0.4243 5.2736 0.0021
0.4445 5.3206 0.0029
0.4647 5.3317 0.0010
0.4849 5.3302 0.0019
0.5051 5.3098 0.0012
0.5253 5.2460 0.0008
0.5455 5.1387 0.0009
0.5657 5.0204 0.0017
0.5859 4.9240 0.0024
0.6061 4.8465 0.0026
0.6263 4.7781 0.0027
0.6465 4.7341 0.0025
0.6667 4.7950 0.0009
0.6869 4.9041 0.0012
0.7071 4.9785 0.0014
0.0000 5.3569 0.0025
0.0202 5.3452 0.0027
0.0404 5.3600 0.0057
0.0606 5.3925 0.0101
0.0808 5.4334 0.0164
0.1010 5.4718 0.0349
0.1212 5.4916 0.2633
0.1414 5.3522 0.9000
0.1616 5.1449 0.9316
0.1818 4.9297 0.8915
0.2020 4.8560 0.0571
0.2222 4.9641 0.0684
0.2424 4.9968 0.7945
0.2626 4.8907 0.8924
0.2828 4.8632 0.1199
0.3030 5.0731 0.0083
0.3232 5.2853 0.0031
0.3435 5.4667 0.0026
0.3637 5.4829 0.0035
0.3839 5.4468 0.0030
0.4041 5.4060 0.0028
0.4243 5.3686 0.0025
0.4445 5.3478 0.0019
0.4647 5.3546 0.0038
0.4849 5.3493 0.0014
0.5051 5.3536 0.0013
0.5253 5.3799 0.0013
0.5455 5.4198 0.0013
0.5657 5.4598 0.0013
0.5859 5.4911 0.0013
0.6061 5.4147 0.0016
0.6263 5.2159 0.0013
0.6465 5.0010 0.0012
0.6667 4.8319 0.0013
0.6869 4.9275 0.0011
0.7071 5.0131 0.0008
0.0000 5.3802 0.0132
0.0202 5.3884 0.0054
0.0404 5.3851 0.0047
0.0606 5.4237 0.0056
0.0808 5.4681 0.0087
0.1010 5.5101 0.0197
0.1212 5.5355 0.2209
0.1414 5.5295 0.2254
0.1616 5.4874 0.6537
0.1818 5.3859 0.8568
0.2020 5.2661 0.9024
0.2222 5.1490 0.8674
0.2424 5.1163 0.1687
0.2626 5.2259 0.0304
0.2828 5.3469 0.0126
0.3030 5.4576 0.0078
0.3232 5.5240 0.0056
0.3435 5.5299 0.0029
0.3637 5.5227 0.0012
0.3839 5.4826 0.0012
0.4041 5.4385 0.0012
0.4243 5.3958 0.0012
0.4445 5.3829 0.0009
0.4647 5.3828 0.0008
0.4849 5.3884 0.0014
0.5051 5.3801 0.0008
0.5253 5.4094 0.0012
0.5455 5.4535 0.0012
0.5657 5.4967 0.0012
0.5859 5.5328 0.0015
0.6061 5.5298 0.0009
0.6263 5.5102 0.0009
0.6465 5.4232 0.0012
0.6667 5.3069 0.0011
0.6869 5.1865 0.0010
0.7071 5.1002 0.0012
0.0000 5.4029 0.0021
0.0202 5.4043 0.0116
0.0404 5.4422 0.0180
0.0606 5.4877 0.0243
0.0808 5.5311 0.0386
0.1010 5.5661 0.0876
0.1212 5.5665 0.2237
0.1414 5.5818 0.0787
0.1616 5.5328 0.8342
0.1818 5.4110 0.9287
0.2020 5.2822 0.9347
0.2222 5.1614 0.8579
0.2424 5.1308 0.2001
0.2626 5.2402 0.0202
0.2828 5.3682 0.0063
0.3030 5.4941 0.0032
0.3232 5.5843 0.0017
0.3435 5.5678 0.0013
0.3637 5.5731 0.0029
0.3839 5.5442 0.0031
0.4041 5.5027 0.0030
0.4243 5.4571 0.0028
0.4445 5.4149 0.0023
0.4647 5.4021 0.0009
0.4849 5.4003 0.0011
0.5051 5.4279 0.0019
0.5253 5.4725 0.0016
0.5455 5.5173 0.0015
0.5657 5.5561 0.0016
0.5859 5.5734 0.0015
0.6061 5.5749 0.0006
0.6263 5.5663 0.0011
0.6465 5.4531 0.0009
0.6667 5.3254 0.0009
0.6869 5.1993 0.0010
0.7071 5.1178 0.0009
0.0000 5.4291 0.0102
0.0202 5.4395 0.0090
0.0404 5.4728 0.0071
0.0606 5.5170 0.0082
0.0808 5.5621 0.0131
0.1010 5.6033 0.0289
0.1212 5.6294 0.1763
0.1414 5.6158 0.3762
0.1616 5.6027 0.0771
0.1818 5.6158 0.0304
0.2020 5.6272 0.0145
0.2222 5.6338 0.0084
0.2424 5.6347 0.0055
0.2626 5.6299 0.0038
0.2828 5.6200 0.0027
0.3030 5.6069 0.0017
0.3232 5.6033 0.0023
0.3435 5.6272 0.0032
0.3637 5.6155 0.0027
0.3839 5.5765 0.0028
0.4041 5.5322 0.0028
0.4243 5.4869 0.0027
0.4445 5.4486 0.0024
0.4647 5.4300 0.0019
0.4849 5.4333 0.0015
0.5051 5.4599 0.0017
0.5253 5.5019 0.0020
0.5455 5.5474 0.0024
0.5657 5.5904 0.0027
0.5859 5.6251 0.0023
0.6061 5.6233 0.0013
0.6263 5.5994 0.0009
0.6465 5.6114 0.0009
0.6667 5.6238 0.0009
0.6869 5.6322 0.0009
0.7071 5.6350 0.0009
0.0000 6.2804 0.9618
0.0202 6.2576 0.9581
0.0404 6.1899 0.9570
0.0606 6.0828 0.9558
0.0808 5.9431 0.9476
0.1010 5.7823 0.8998
0.1212 5.6566 0.3339
0.1414 5.6518 0.2861
0.1616 5.6386 0.1215
0.1818 5.6502 0.0276
0.2020 5.6626 0.0108
0.2222 5.6699 0.0058
0.2424 5.6709 0.0038
0.2626 5.6657 0.0029
0.2828 5.6548 0.0024
0.3030 5.6414 0.0023
0.3232 5.6446 0.0025
0.3435 5.6534 0.0038
0.3637 5.7289 0.0021
0.3839 5.8912 0.0013
0.4041 6.0395 0.0011
0.4243 6.1586 0.0010
0.4445 6.2399 0.0011
0.4647 6.2779 0.0014
0.4849 6.2703 0.0013
0.5051 6.2172 0.0014
0.5253 6.1227 0.0012
0.5455 5.9927 0.0010
0.5657 5.8372 0.0008
0.5859 5.6825 0.0010
0.6061 5.6547 0.0026
0.6263 5.6392 0.0013
0.6465 5.6456 0.0011
0.6667 5.6590 0.0010
0.6869 5.6681 0.0010
0.7071 5.6713 0.0010
0.0000 6.2837 0.9410
0.0202 6.2677 0.9430
0.0404 6.2219 0.9462
0.0606 6.1500 0.9496
0.0808 6.0573 0.9488
0.1010 5.9500 0.9368
0.1212 5.8372 0.8816
0.1414 5.7438 0.5202
0.1616 5.7288 0.1031
0.1818 5.7402 0.0402
0.2020 5.7510 0.0219
0.2222 5.7574 0.0139
0.2424 5.7584 0.0099
0.2626 5.7537 0.0077
0.2828 5.7442 0.0063
0.3030 5.7321 0.0056
0.3232 5.7308 0.0045
0.3435 5.8009 0.0022
0.3637 5.9122 0.0014
0.3839 6.0229 0.0012
0.4041 6.1214 0.0013
0.4243 6.2008 0.0019
0.4445 6.2556 0.0031
0.4647 6.2819 0.0041
0.4849 6.2765 0.0052
0.5051 6.2403 0.0050
0.5253 6.1767 0.0035
0.5455 6.0903 0.0022
0.5657 5.9870 0.0016
0.5859 5.8741 0.0016
0.6061 5.7683 0.0026
0.6263 5.7273 0.0043
0.6465 5.7361 0.0035
0.6667 5.7478 0.0029
0.6869 5.7559 0.0026
0.7071 5.7587 0.0026
0.0000 6.2884 0.9456
0.0202 6.2722 0.9490
0.0404 6.2261 0.9493
0.0606 6.1552 0.9434
0.0808 6.0654 0.9304
0.1010 5.9634 0.8996
0.1212 5.8605 0.8079
0.1414 5.7792 0.5159
0.1616 5.7540 0.1659
0.1818 5.7607 0.0535
0.2020 5.7710 0.0238
0.2222 5.7775 0.0134
0.2424 5.7785 0.0086
0.2626 5.7737 0.0061
0.2828 5.7643 0.0044
0.3030 5.7548 0.0031
0.3232 5.7644 0.0020
0.3435 5.8289 0.0017
0.3637 5.9283 0.0018
0.3839 6.0325 0.0020
0.4041 6.1273 0.0021
0.4243 6.2052 0.0019
0.4445 6.2600 0.0015
0.4647 6.2866 0.0011
0.4849 6.2811 0.0007
0.5051 6.2446 0.0010
0.5253 6.1814 0.0021
0.5455 6.0972 0.0028
0.5657 5.9983 0.0028
0.5859 5.8935 0.0025
0.6061 5.8012 0.0020
0.6263 5.7565 0.0021
0.6465 5.7573 0.0031
0.6667 5.7679 0.0039
0.6869 5.7759 0.0043
0.7071 5.7788 0.0045
0.0000 6.8028 0.0015
0.0202 6.8011 0.0026
0.0404 6.7840 0.0043
0.0606 6.7601 0.0041
0.0808 6.7407 0.0034
0.1010 6.7279 0.0027
0.1212 6.7227 0.0022
0.1414 6.7282 0.0018
0.1616 6.7403 0.0015
0.1818 6.7609 0.0014
0.2020 6.7905 0.0014
0.2222 6.8301 0.0015
0.2424 6.8450 0.0017
0.2626 6.8024 0.0015
0.2828 6.7697 0.0015
0.3030 6.7462 0.0015
0.3232 6.7312 0.0016
0.3435 6.7252 0.0018
0.3637 6.7252 0.0022
0.3839 6.7356 0.0030
0.4041 6.7530 0.0047
0.4243 6.7763 0.0103
0.4445 6.7973 0.0379
0.4647 6.8023 0.1407
0.4849 6.8024 0.4417
0.5051 6.7912 0.8253
0.5253 6.7677 0.9276
0.5455 6.7465 0.9551
0.5657 6.7313 0.9656
0.5859 6.7235 0.9708
0.6061 6.7263 0.9736
0.6263 6.7350 0.9753
0.6465 6.7530 0.9764
0.6667 6.7796 0.9771
0.6869 6.8153 0.9773
0.7071 6.8586 0.9745
0.0000 6.8362 0.0034
0.0202 6.8516 0.0038
0.0404 6.9127 0.0030
0.0606 7.0106 0.0024
0.0808 7.1131 0.0018
0.1010 7.2030 0.0015
0.1212 7.2650 0.0019
0.1414 7.1935 0.0022
0.1616 7.1077 0.0020
0.1818 7.0282 0.0019
0.2020 6.9577 0.0017
0.2222 6.8968 0.0016
0.2424 6.8787 0.0016
0.2626 6.9364 0.0022
0.2828 7.0036 0.0032
0.3030 7.0802 0.0060
0.3232 7.1640 0.0160
0.3435 7.2497 0.1375
0.3637 7.2308 0.8645
0.3839 7.1440 0.8048
0.4041 7.0463 0.4300
0.4243 6.9423 0.0995
0.4445 6.8671 0.0299
0.4647 6.8369 0.0348
0.4849 6.8415 0.1062
0.5051 6.8875 0.0291
0.5253 6.9753 0.0108
0.5455 7.0807 0.0086
0.5657 7.1740 0.0148
0.5859 7.2550 0.1516
0.6061 7.2229 0.9118
0.6263 7.1349 0.9622
0.6465 7.0537 0.9717
0.6667 6.9802 0.9753
0.6869 6.9160 0.9769
0.7071 6.8640 0.9803
0.0000 6.8761 0.0064
0.0202 6.8969 0.0062
0.0404 6.9533 0.0033
0.0606 7.0435 0.0019
0.0808 7.1720 0.0017
0.1010 7.3342 0.0013
0.1212 7.3305 0.0016
0.1414 7.4003 0.0011
0.1616 7.4970 0.0010
0.1818 7.5974 0.0011
0.2020 7.7004 0.0014
0.2222 7.8046 0.0043
0.2424 7.8387 0.9251
0.2626 7.7352 0.9482
0.2828 7.6315 0.9514
0.3030 7.5301 0.9486
0.3232 7.4326 0.9342
0.3435 7.3446 0.8006
0.3637 7.3599 0.0382
0.3839 7.2239 0.0521
0.4041 7.0813 0.2482
0.4243 6.9799 0.3525
0.4445 6.9123 0.3097
0.4647 6.8779 0.0839
0.4849 6.8848 0.0672
0.5051 6.9307 0.0832
0.5253 7.0099 0.0187
0.5455 7.1242 0.0039
0.5657 7.2790 0.0160
0.5859 7.3415 0.7646
0.6061 7.3707 0.0540
0.6263 7.4644 0.0117
0.6465 7.5636 0.0054
0.6667 7.6659 0.0032
0.6869 7.7699 0.0022
0.7071 7.8656 0.0005
0.0000 6.8923 0.0062
0.0202 6.9036 0.0034
0.0404 6.9665 0.0026
0.0606 7.0715 0.0019
0.0808 7.2105 0.0015
0.1010 7.3743 0.0020
0.1212 7.5363 0.0036
0.1414 7.7442 0.0049
0.1616 7.8988 0.0072
0.1818 7.9760 0.0506
0.2020 8.0123 0.5134
0.2222 7.9410 0.8940
0.2424 7.9089 0.0145
0.2626 7.9971 0.0021
0.2828 7.9962 0.0019
0.3030 7.9275 0.0012
0.3232 7.8107 0.0047
0.3435 7.6045 0.0064
0.3637 7.4115 0.0093
0.3839 7.2634 0.0105
0.4041 7.1143 0.0163
0.4243 6.9974 0.0181
0.4445 6.9189 0.0472
0.4647 6.8922 0.3395
0.4849 6.8954 0.2611
0.5051 6.9401 0.0049
0.5253 7.0324 0.0025
0.5455 7.1607 0.0035
0.5657 7.3189 0.0119
0.5859 7.4707 0.0217
0.6061 7.6742 0.0030
0.6263 7.8625 0.0011
0.6465 7.9532 0.0006
0.6667 8.0109 0.0005
0.6869 7.9714 0.0012
0.7071 7.8825 0.0027
0.0000 6.9465 0.0096
0.0202 6.9695 0.0082
0.0404 7.0330 0.0061
0.0606 7.1251 0.0040
0.0808 7.2491 0.0027
0.1010 7.3910 0.0032
0.1212 7.5689 0.0014
0.1414 7.7661 0.0027
0.1616 7.9230 0.0067
0.1818 8.0013 0.0088
0.2020 8.0699 0.0178
0.2222 8.1343 0.0158
0.2424 8.1516 0.0039
0.2626 8.0921 0.0042
0.2828 8.0245 0.0049
0.3030 7.9517 0.0050
0.3232 7.8274 0.0017
0.3435 7.6350 0.0039
0.3637 7.4415 0.0054
0.3839 7.2980 0.0682
0.4041 7.1623 0.2210
0.4243 7.0609 0.2701
0.4445 6.9870 0.1539
0.4647 6.9486 0.1132
0.4849 6.9563 0.0166
0.5051 7.0081 0.0062
0.5253 7.0915 0.0113
0.5455 7.2036 0.0163
0.5657 7.3484 0.0784
0.5859 7.5041 0.0049
0.6061 7.7014 0.0020
0.6263 7.8838 0.0010
0.6465 7.9774 0.0007
0.6667 8.0474 0.0005
0.6869 8.1137 0.0003
0.7071 8.1587 0.0004
0.0000 6.9683 0.0009
0.0202 6.9917 0.0015
0.0404 7.0529 0.0017
0.0606 7.1516 0.0022
0.0808 7.2899 0.0022
0.1010 7.4492 0.0014
0.1212 7.6073 0.0011
0.1414 7.8025 0.0034
0.1616 7.9606 0.0240
0.1818 8.0543 0.0357
0.2020 8.0959 0.3031
0.2222 8.1407 0.0187
0.2424 8.1576 0.0018
0.2626 8.1056 0.0019
0.2828 8.0765 0.0015
0.3030 7.9993 0.0022
0.3232 7.8593 0.0033
0.3435 7.6728 0.0135
0.3637 7.4858 0.0427
0.3839 7.3432 0.0103
0.4041 7.1937 0.0395
0.4243 7.0810 0.2128
0.4445 7.0087 0.3870
0.4647 6.9705 0.2557
0.4849 6.9786 0.0775
0.5051 7.0290 0.0248
0.5253 7.1139 0.0077
0.5455 7.2399 0.0025
0.5657 7.3996 0.0014
0.5859 7.5440 0.0224
0.6061 7.7388 0.0030
0.6263 7.9093 0.0020
0.6465 8.0290 0.0030
0.6667 8.0921 0.0017
0.6869 8.1221 0.0012
0.7071 8.1660 0.0005
0.0000 7.5885 0.0029
0.0202 7.5787 0.0025
0.0404 7.5778 0.0024
0.0606 7.5899 0.0029
0.0808 7.5263 0.0031
0.1010 7.4589 0.0021
0.1212 7.6512 0.0024
0.1414 7.8513 0.0049
0.1616 8.0001 0.0110
0.1818 8.0829 0.0148
0.2020 8.1326 0.0532
0.2222 8.1854 0.0026
0.2424 8.1933 0.0010
0.2626 8.1515 0.0028
0.2828 8.1039 0.0081
0.3030 8.0348 0.0079
0.3232 7.9082 0.0050
0.3435 7.7186 0.0018
0.3637 7.5208 0.0040
0.3839 7.4931 0.0180
0.4041 7.5811 0.0084
0.4243 7.5820 0.0042
0.4445 7.5762 0.0031
0.4647 7.5867 0.0023
0.4849 7.5827 0.0066
0.5051 7.5758 0.0185
0.5253 7.5874 0.1019
0.5455 7.5575 0.7476
0.5657 7.4625 0.8173
0.5859 7.5850 0.0009
0.6061 7.7863 0.0007
0.6263 7.9533 0.0021
0.6465 8.0600 0.0020
0.6667 8.1186 0.0020
0.6869 8.1700 0.0018
0.7071 8.1920 0.0015
0.0000 7.6262 0.0017
0.0202 7.6293 0.0020
0.0404 7.6362 0.0022
0.0606 7.6489 0.0025
0.0808 7.6736 0.0022
0.1010 7.7375 0.0031
0.1212 7.8078 0.0054
0.1414 7.8872 0.0070
0.1616 8.0117 0.0107
0.1818 8.1475 0.5868
0.2020 8.1531 0.0295
0.2222 8.2038 0.0016
0.2424 8.2074 0.0021
0.2626 8.1726 0.0068
0.2828 8.1391 0.0021
0.3030 8.0668 0.0020
0.3232 7.9239 0.0025
0.3435 7.8321 0.0029
0.3637 7.7605 0.0010
0.3839 7.6932 0.0005
0.4041 7.6488 0.0008
0.4243 7.6418 0.0034
0.4445 7.6305 0.0024
0.4647 7.6269 0.0044
0.4849 7.6282 0.0053
0.5051 7.6326 0.0088
0.5253 7.6479 0.1053
0.5455 7.6577 0.0897
0.5657 7.7146 0.0139
0.5859 7.7841 0.0046
0.6061 7.8580 0.0031
0.6263 7.9710 0.0019
0.6465 8.1248 0.0007
0.6667 8.1366 0.0022
0.6869 8.1905 0.0018
0.7071 8.2059 0.0010
0.0000 7.6562 0.0028
0.0202 7.6459 0.0029
0.0404 7.6432 0.0023
0.0606 7.6660 0.0023
0.0808 7.7152 0.0017
0.1010 7.7777 0.0013
0.1212 7.8412 0.0012
0.1414 7.9191 0.0015
0.1616 8.0644 0.0030
0.1818 8.2459 0.0946
0.2020 8.2939 0.0109
0.2222 8.2478 0.0109
0.2424 8.2366 0.0037
0.2626 8.2800 0.0024
0.2828 8.2921 0.0019
0.3030 8.1299 0.0015
0.3232 7.9608 0.0012
0.3435 7.8635 0.0014
0.3637 7.7987 0.0015
0.3839 7.7354 0.0027
0.4041 7.6798 0.0048
0.4243 7.6479 0.0041
0.4445 7.6426 0.0066
0.4647 7.6545 0.0086
0.4849 7.6504 0.0036
0.5051 7.6415 0.0047
0.5253 7.6556 0.0220
0.5455 7.6964 0.0046
0.5657 7.7563 0.0033
0.5859 7.8198 0.0028
0.6061 7.8883 0.0018
0.6263 8.0082 0.0012
0.6465 8.1936 0.0007
0.6667 8.3023 0.0003
0.6869 8.2635 0.0005
0.7071 8.2322 0.0012
0.0000 7.6802 0.0070
0.0202 7.6692 0.0060
0.0404 7.6632 0.0057
0.0606 7.6751 0.0032
0.0808 7.7242 0.0023
0.1010 7.7997 0.0027
0.1212 7.8846 0.0027
0.1414 7.9641 0.0025
0.1616 8.0955 0.0045
0.1818 8.2790 0.0834
0.2020 8.3055 0.0061
0.2222 8.2591 0.0084
0.2424 8.2518 0.0186
0.2626 8.2902 0.0085
0.2828 8.3193 0.0016
0.3030 8.1597 0.0024
0.3232 7.9966 0.0085
0.3435 7.9112 0.0086
0.3637 7.8278 0.0111
0.3839 7.7471 0.0082
0.4041 7.6876 0.0052
0.4243 7.6651 0.0046
0.4445 7.6653 0.0042
0.4647 7.6785 0.0062
0.4849 7.6741 0.0163
0.5051 7.6632 0.0331
0.5253 7.6684 0.0943
0.5455 7.7042 0.0069
0.5657 7.7723 0.0012
0.5859 7.8566 0.0014
0.6061 7.9371 0.0028
0.6263 8.0407 0.0018
0.6465 8.2264 0.0014
0.6667 8.3182 0.0007
0.6869 8.2736 0.0009
0.7071 8.2510 0.0014
0.0000 7.7109 0.0014
0.0202 7.7024 0.0047
0.0404 7.7137 0.0047
0.0606 7.7192 0.0053
0.0808 7.7505 0.0049
0.1010 7.8153 0.0034
0.1212 7.8961 0.0014
0.1414 7.9767 0.0014
0.1616 8.1188 0.0112
0.1818 8.2975 0.0041
0.2020 8.3658 0.0041
0.2222 8.3270 0.0068
0.2424 8.3151 0.0070
0.2626 8.3554 0.0024
0.2828 8.3387 0.0021
0.3030 8.1885 0.0027
0.3232 8.0089 0.0025
0.3435 7.9230 0.0026
0.3637 7.8410 0.0011
0.3839 7.7697 0.0022
0.4041 7.7232 0.0011
0.4243 7.7195 0.0010
0.4445 7.7043 0.0007
0.4647 7.7080 0.0015
0.4849 7.7035 0.0069
0.5051 7.7083 0.0122
0.5253 7.7216 0.1980
0.5455 7.7345 0.0557
0.5657 7.7912 0.0125
0.5859 7.8686 0.0040
0.6061 7.9494 0.0022
0.6263 8.0545 0.0012
0.6465 8.2359 0.0011
0.6667 8.3672 0.0015
0.6869 8.3413 0.0014
0.7071 8.3099 0.0014
0.0000 7.7141 0.0033
0.0202 7.7306 0.0029
0.0404 7.7479 0.0036
0.0606 7.7488 0.0029
0.0808 7.7863 0.0040
0.1010 7.8457 0.0051
0.1212 7.9305 0.0072
0.1414 8.0516 0.0132
0.1616 8.1922 0.1121
0.1818 8.3230 0.0084
0.2020 8.3866 0.0156
0.2222 8.3479 0.0134
0.2424 8.3371 0.0031
0.2626 8.3759 0.0011
0.2828 8.3635 0.0008
0.3030 8.2270 0.0008
0.3232 8.0980 0.0020
0.3435 7.9671 0.0026
0.3637 7.8704 0.0016
0.3839 7.8036 0.0013
0.4041 7.7587 0.0016
0.4243 7.7482 0.0018
0.4445 7.7377 0.0013
0.4647 7.7149 0.0005
0.4849 7.7222 0.0084
0.5051 7.7434 0.0363
0.5253 7.7445 0.1881
0.5455 7.7714 0.0135
0.5657 7.8231 0.0078
0.5859 7.8985 0.0070
0.6061 8.0078 0.0042
0.6263 8.1458 0.0026
0.6465 8.2685 0.0005
0.6667 8.3850 0.0007
0.6869 8.3618 0.0015
0.7071 8.3325 0.0019
0.0000 7.7244 0.0087
0.0202 7.7620 0.0054
0.0404 7.7751 0.0026
0.0606 7.7859 0.0022
0.0808 7.8249 0.0027
0.1010 7.8834 0.0036
0.1212 7.9692 0.0048
0.1414 8.0849 0.0071
0.1616 8.2263 0.0582
0.1818 8.3396 0.0036
0.2020 8.5013 0.0111
0.2222 8.7175 0.0015
0.2424 8.7824 0.0013
0.2626 8.5734 0.0017
0.2828 8.3762 0.0021
0.3030 8.2690 0.0016
0.3232 8.1302 0.0014
0.3435 8.0042 0.0013
0.3637 7.9084 0.0012
0.3839 7.8421 0.0014
0.4041 7.7968 0.0016
0.4243 7.7737 0.0029
0.4445 7.7743 0.0092
0.4647 7.7321 0.0087
0.4849 7.7455 0.0039
0.5051 7.7757 0.0903
0.5253 7.7775 0.0545
0.5455 7.8099 0.0088
0.5657 7.8611 0.0044
0.5859 7.9373 0.0026
0.6061 8.0428 0.0015
0.6263 8.1778 0.0007
0.6465 8.3077 0.0010
0.6667 8.4408 0.0013
0.6869 8.6465 0.0009
0.7071 8.8169 0.0004
0.0000 7.7621 0.0034
0.0202 7.7728 0.0027
0.0404 7.8075 0.0027
0.0606 7.8375 0.0015
0.0808 7.8684 0.0030
0.1010 7.9142 0.0034
0.1212 7.9877 0.0060
0.1414 8.1056 0.0170
0.1616 8.2417 0.1058
0.1818 8.3757 0.0021
0.2020 8.5212 0.0031
0.2222 8.7345 0.0025
0.2424 8.7982 0.0011
0.2626 8.5935 0.0017
0.2828 8.4233 0.0022
0.3030 8.2842 0.0013
0.3232 8.1513 0.0011
0.3435 8.0227 0.0010
0.3637 7.9343 0.0016
0.3839 7.8819 0.0021
0.4041 7.8465 0.0031
0.4243 7.8180 0.0068
0.4445 7.7810 0.0055
0.4647 7.7649 0.0040
0.4849 7.7698 0.0149
0.5051 7.7959 0.0104
0.5253 7.8279 0.0201
0.5455 7.8566 0.0286
0.5657 7.8967 0.0090
0.5859 7.9585 0.0030
0.6061 8.0624 0.0009
0.6263 8.1977 0.0006
0.6465 8.3312 0.0009
0.6667 8.4511 0.0003
0.6869 8.6650 0.0004
0.7071 8.8319 0.0004
0.0000 7.7816 0.0031
0.0202 7.7975 0.0030
0.0404 7.8521 0.0015
0.0606 7.8439 0.0033
0.0808 7.8816 0.0015
0.1010 7.9418 0.0012
0.1212 8.0320 0.0012
0.1414 8.1539 0.0018
0.1616 8.2991 0.0403
0.1818 8.4164 0.0025
0.2020 8.5609 0.0013
0.2222 8.7574 0.0013
0.2424 8.8146 0.0032
0.2626 8.6274 0.0024
0.2828 8.4381 0.0014
0.3030 8.3342 0.0018
0.3232 8.2005 0.0069
0.3435 8.0694 0.0072
0.3637 7.9679 0.0078
0.3839 7.8989 0.0081
0.4041 7.8538 0.0076
0.4243 7.8437 0.0040
0.4445 7.8137 0.0026
0.4647 7.7817 0.0033
0.4849 7.7864 0.0014
0.5051 7.8366 0.0405
0.5253 7.8398 0.1606
0.5455 7.8666 0.0068
0.5657 7.9185 0.0026
0.5859 7.9981 0.0010
0.6061 8.1102 0.0005
0.6263 8.2494 0.0003
0.6465 8.3731 0.0003
0.6667 8.4963 0.0007
0.6869 8.6935 0.0006
0.7071 8.8587 0.0002
0.0000 7.7993 0.0014
0.0202 7.8406 0.0017
0.0404 7.8886 0.0051
0.0606 8.0074 0.0057
0.0808 8.1463 0.0091
0.1010 8.2670 0.0185
0.1212 8.3508 0.0860
0.1414 8.3621 0.5309
0.1616 8.3226 0.4481
0.1818 8.4183 0.0172
0.2020 8.5998 0.0036
0.2222 8.8100 0.0034
0.2424 8.8727 0.0015
0.2626 8.6712 0.0011
0.2828 8.4693 0.0033
0.3030 8.3551 0.0058
0.3232 8.3474 0.0008
0.3435 8.3650 0.0013
0.3637 8.3006 0.0019
0.3839 8.1892 0.0027
0.4041 8.0544 0.0028
0.4243 7.9203 0.0025
0.4445 7.8689 0.0013
0.4647 7.8046 0.0050
0.4849 7.8188 0.0045
0.5051 7.8894 0.4076
0.5253 7.9621 0.0118
0.5455 8.1010 0.0022
0.5657 8.2294 0.0009
0.5859 8.3290 0.0005
0.6061 8.3694 0.0010
0.6263 8.3308 0.0012
0.6465 8.3978 0.0006
0.6667 8.5300 0.0010
0.6869 8.7414 0.0009
0.7071 8.8711 0.0009
0.0000 7.8251 0.0034
0.0202 7.8600 0.0038
0.0404 7.9433 0.0027
0.0606 8.0643 0.0029
0.0808 8.1776 0.0039
0.1010 8.2792 0.0049
0.1212 8.3592 0.0141
0.1414 8.4022 0.0219
0.1616 8.4092 0.0083
0.1818 8.4586 0.0012
0.2020 8.6210 0.0042
0.2222 8.8544 0.0013
0.2424 8.9162 0.0011
0.2626 8.6951 0.0015
0.2828 8.4963 0.0017
0.3030 8.4085 0.0022
0.3232 8.4077 0.0018
0.3435 8.3783 0.0016
0.3637 8.3086 0.0023
0.3839 8.2130 0.0016
0.4041 8.1032 0.0011
0.4243 7.9836 0.0007
0.4445 7.8843 0.0020
0.4647 7.8290 0.0033
0.4849 7.8408 0.0082
0.5051 7.9068 0.0634
0.5253 8.0243 0.0027
0.5455 8.1409 0.0013
0.5657 8.2468 0.0012
0.5859 8.3354 0.0012
0.6061 8.3929 0.0009
0.6263 8.4097 0.0006
0.6465 8.4185 0.0006
0.6667 8.5534 0.0013
0.6869 8.7740 0.0004
0.7071 8.9366 0.0015
0.0000 7.8639 0.0014
0.0202 7.8936 0.0033
0.0404 7.9583 0.0055
0.0606 8.0831 0.0100
0.0808 8.1931 0.0116
0.1010 8.2947 0.0192
0.1212 8.3757 0.0554
0.1414 8.4195 0.0472
0.1616 8.4311 0.0306
0.1818 8.4720 0.0074
0.2020 8.6426 0.0051
0.2222 8.8691 0.0032
0.2424 8.9351 0.0014
0.2626 8.7173 0.0005
0.2828 8.5115 0.0023
0.3030 8.4350 0.0040
0.3232 8.4261 0.0034
0.3435 8.3944 0.0020
0.3637 8.3251 0.0011
0.3839 8.2278 0.0013
0.4041 8.1220 0.0019
0.4243 7.9981 0.0020
0.4445 7.9096 0.0013
0.4647 7.8673 0.0066
0.4849 7.8775 0.0283
0.5051 7.9247 0.0757
0.5253 8.0407 0.0017
0.5455 8.1580 0.0004
0.5657 8.2616 0.0003
0.5859 8.3525 0.0003
0.6061 8.4092 0.0005
0.6263 8.4294 0.0007
0.6465 8.4498 0.0009
0.6667 8.5720 0.0006
0.6869 8.7934 0.0005
0.7071 8.9491 0.0001
0.0000 7.9448 0.0043
0.0202 7.9547 0.0034
0.0404 7.9941 0.0043
0.0606 8.1009 0.0055
0.0808 8.2108 0.0034
0.1010 8.3121 0.0036
0.1212 8.3990 0.0033
0.1414 8.4564 0.0031
0.1616 8.4738 0.0146
0.1818 8.4855 0.0603
0.2020 8.6599 0.0074
0.2222 8.8975 0.0017
0.2424 8.9583 0.0015
0.2626 8.7357 0.0031
0.2828 8.5302 0.0017
0.3030 8.4726 0.0007
0.3232 8.4665 0.0011
0.3435 8.4220 0.0016
0.3637 8.3434 0.0020
0.3839 8.2451 0.0029
0.4041 8.1381 0.0039
0.4243 8.0288 0.0020
0.4445 7.9532 0.0046
0.4647 7.9463 0.0154
0.4849 7.9503 0.0667
0.5051 7.9650 0.0860
0.5253 8.0650 0.0080
0.5455 8.1753 0.0029
0.5657 8.2788 0.0014
0.5859 8.3725 0.0016
0.6061 8.4418 0.0017
0.6263 8.4720 0.0015
0.6465 8.4710 0.0012
0.6667 8.5909 0.0004
0.6869 8.8163 0.0004
0.7071 8.9619 0.0008
0.0000 7.9779 0.0012
0.0202 7.9867 0.0015
0.0404 8.0207 0.0040
0.0606 8.1103 0.0025
0.0808 8.2391 0.0027
0.1010 8.4007 0.0301
0.1212 8.4829 0.5842
0.1414 8.4778 0.2810
0.1616 8.4813 0.0842
0.1818 8.5045 0.0074
0.2020 8.6958 0.0018
0.2222 8.9294 0.0023
0.2424 8.9798 0.0033
0.2626 8.7721 0.0048
0.2828 8.5590 0.0056
0.3030 8.4808 0.0027
0.3232 8.4798 0.0030
0.3435 8.4800 0.0051
0.3637 8.4506 0.0041
0.3839 8.2906 0.0009
0.4041 8.1504 0.0017
0.4243 8.0451 0.0064
0.4445 7.9890 0.0068
0.4647 7.9793 0.0049
0.4849 7.9831 0.0442
0.5051 8.0014 0.0279
0.5253 8.0743 0.0010
0.5455 8.1922 0.0015
0.5657 8.3452 0.0013
0.5859 8.4772 0.0006
0.6061 8.4775 0.0007
0.6263 8.4812 0.0010
0.6465 8.4833 0.0016
0.6667 8.6243 0.0003
0.6869 8.8514 0.0004
0.7071 9.0008 0.0005
0.0000 7.9945 0.0032
0.0202 8.0022 0.0024
0.0404 8.0468 0.0016
0.0606 8.1300 0.0012
0.0808 8.2702 0.0150
0.1010 8.4240 0.0998
0.1212 8.5803 0.0096
0.1414 8.7560 0.0049
0.1616 8.9354 0.0046
0.1818 9.0861 0.0041
0.2020 9.1499 0.0024
0.2222 9.0303 0.0018
0.2424 9.0079 0.0027
0.2626 9.1318 0.0008
0.2828 9.1194 0.0014
0.3030 8.9918 0.0018
0.3232 8.8157 0.0013
0.3435 8.6383 0.0010
0.3637 8.4702 0.0030
0.3839 8.3235 0.0034
0.4041 8.1692 0.0015
0.4243 8.0712 0.0024
0.4445 8.0109 0.0037
0.4647 7.9956 0.0098
0.4849 7.9985 0.0584
0.5051 8.0264 0.0075
0.5253 8.0986 0.0007
0.5455 8.2175 0.0004
0.5657 8.3756 0.0002
0.5859 8.5234 0.0006
0.6061 8.6969 0.0003
0.6263 8.8763 0.0003
0.6465 9.0431 0.0004
0.6667 9.1422 0.0006
0.6869 9.0860 0.0007
0.7071 9.0084 0.0002
0.0000 8.0130 0.0037
0.0202 8.0208 0.0050
0.0404 8.0614 0.0034
0.0606 8.1626 0.0044
0.0808 8.3164 0.0081
0.1010 8.4773 0.0257
0.1212 8.6309 0.0426
0.1414 8.8027 0.0161
0.1616 8.9737 0.0090
0.1818 9.1086 0.0033
0.2020 9.1967 0.0019
0.2222 9.0684 0.0014
0.2424 9.0247 0.0013
0.2626 9.1843 0.0020
0.2828 9.1445 0.0024
0.3030 9.0229 0.0012
0.3232 8.8617 0.0011
0.3435 8.6863 0.0010
0.3637 8.5279 0.0029
0.3839 8.3717 0.0043
0.4041 8.2101 0.0037
0.4243 8.0878 0.0015
0.4445 8.0273 0.0039
0.4647 8.0145 0.0024
0.4849 8.0185 0.0281
0.5051 8.0414 0.0115
0.5253 8.1216 0.0029
0.5455 8.2618 0.0014
0.5657 8.4257 0.0011
0.5859 8.5784 0.0008
0.6061 8.7439 0.0005
0.6263 8.9198 0.0007
0.6465 9.0677 0.0007
0.6667 9.1748 0.0007
0.6869 9.1283 0.0004
0.7071 9.0306 0.0004
0.0000 8.0295 0.0047
0.0202 8.0316 0.0033
0.0404 8.0869 0.0026
0.0606 8.1941 0.0032
0.0808 8.3397 0.0092
0.1010 8.4979 0.0229
0.1212 8.6574 0.0579
0.1414 8.8222 0.0146
0.1616 8.9846 0.0021
0.1818 9.1213 0.0034
0.2020 9.2185 0.0046
0.2222 9.0888 0.0032
0.2424 9.0440 0.0023
0.2626 9.2082 0.0014
